0.7005653213284706 0.04313038327549101 -0.2617597954025401 0.7882990303830069 -0.1700942311971772 0.9460213948935832 0.008056380385078032 0.16078159168937786 -0.047570735708503634 -0.41547521640537094 0.6310101782481335 0.5478579456940995 0.09451736091554386 0.3269882245356075 -0.47280012011310407 0.46913497993777553 -0.8487124552022624 -0.670966431630627 0.0938778925623346 0.057088479387892334 
0.8783546221759913 -0.7981398407559539 0.15834392115349516 0.7872580329124688 0.20363534098889446 0.9684298334738586 -0.2385868762963037 -0.5098722671708431 -0.6141839277102015 0.4976147558777799 -0.7523880129537961 0.6400496025914852 0.02218352425426473 -0.29093965204370087 0.7678126685783018 -0.8740172358868592 0.2686654654459528 0.43587783892015297 0.13202803702089505 0.053862064641633456 
-0.7662200766675813 0.9240284530467757 0.7569761925337581 -0.554989372297259 -0.6733191597736774 -0.9744213845885339 0.1856257276201121 -0.22439562401468938 0.49151428523673735 -0.4347920095289801 -0.4080868848716519 -0.8431455238827561 -0.9707654373203094 0.3400655695600785 0.883053825051533 -0.8347514464964056 -0.1900046863440119 -0.9253691905599222 -0.3175384582495999 0.30011710964381133 
0.011858551657091931 -0.642592970586608 -0.5794276372399674 0.3528902336535731 -0.9023810465579198 0.45826678813394817 -0.8280141830206817 0.9678894515358598 -0.04549997165972486 -0.47440879560972293 0.8270268149370201 0.5486922990922154 0.3795674491165679 -0.5369397177525717 -0.5459918671030752 0.5695121965688639 -0.8423888638112915 -0.17470205791714077 0.32183259466979774 0.9889196195713197 
0.08606562524135186 0.21054354557028954 -0.7816507773625543 0.6643633588926225 -0.8125218446903075 -0.697046566820309 -0.6227760181843969 0.6660723654442902 -0.6611006836603366 -0.33426074214393653 -0.32580082645172714 0.5089289848518084 -0.7816990395357213 0.756445947054263 0.42460537284582034 -0.7050218178586771 0.8375632653317453 0.984406464934017 0.6240803741365697 -0.16250696193864456 
-0.9589724041958203 -0.9971142755596654 -0.0009149986392964493 -0.941546165072634 0.2202149536027791 0.8032059618717047 0.44406220656662043 -0.08675624297361728 -0.6291566159042061 0.9320605096252668 0.6332696251815733 -0.8267095239201627 0.940329519924924 0.6191112312272882 -0.5403624401157059 0.12063752902945368 -0.6987058812716169 0.7581386600082596 -0.062118616977936414 0.3675892876299358 
0.01563213598518054 0.9624557729653329 0.5732556633318251 0.39861717301430843 0.7710172234418766 -0.16934714300821496 0.7972358739875969 0.9511871481225596 0.9578148760428136 0.14010181565791635 -0.29610013083685316 -0.3893426234867543 -0.4942955851567836 0.010050921523671708 -0.17315596047244175 0.5002883191363909 0.3366277878269617 0.8503345187216373 -0.17153865664923296 -0.9897737038591616 
-0.9828037065675133 0.5462923335177916 -0.3100430904373549 0.5718854749137222 0.5019051980402515 0.045128030648404975 0.7267412230248115 -0.041109410686197834 -0.5510478890516131 -0.9610730245545894 0.09033867764830666 0.341196511178174 0.5250736977333322 -0.6533060441861682 -0.4756556872363103 0.24102187985190257 -1.0078226793601694 -0.4262439263045205 -0.31955072508184484 -0.131011377918552 
0.5024517749695062 0.7709057732549536 0.4988125883848385 0.23779279718810561 -0.4506951248494704 0.7336574399120546 -0.1103081437714171 0.6723672703546796 -0.10503992322461356 0.35733105369958507 0.7582339505776791 -0.3797148171481039 0.17289340102924883 -0.04892927482784283 -0.2703012206238398 -0.38899318085991935 -0.7445811627481138 0.5678579783438203 0.6693926303585238 0.5279818416960574 
-0.42332428663737287 -0.5098749706126392 -0.5115412565241511 0.4816503381117915 0.4877008149318871 -0.44537211674279636 -0.6630178619971615 0.22865444618400171 -0.12479990054424579 0.28814182462023696 0.38853453047970626 -0.41092092172820954 -0.4001799346133131 -0.9363503092156904 -0.9341608112358831 -0.7495238393974294 -0.6649027900137989 -0.40488781299610516 0.6241192822772113 -0.8973703640021427 
0.9247395317049742 -0.28795799952276796 0.8132758721660451 0.9344571342492201 0.015262359204741886 -0.34469681729259755 -0.20182193269738846 0.7933752085086211 0.7271948588563871 -0.6800060298002752 0.5361515690608548 0.530693908628708 -0.8043814916925195 0.6130554455113859 0.8140344209256457 -0.9242119719848053 -0.20516131299432877 0.41536716855309275 -0.9019054239442829 -0.6400348650710336 
0.39442949238433245 0.3067294445757682 -0.017621319962189422 -0.4316676747458822 0.15531310115784552 0.3080158519125652 -0.8255861962082929 0.6422362622176923 -0.7056531735822861 -0.3546164667590725 0.26492031515995756 0.1903785793989173 -0.4318738539694295 -0.05446513139520061 0.5744392833883515 -0.5824026834692271 -0.6196084651912718 -0.10808263574738529 0.7189708810007109 0.8618212730305642 
0.6908974923792109 -0.08266256334639357 -0.8876359521601997 -0.8977786063216048 0.7320248343034975 -0.8898676339824351 -0.6881137189174562 -0.2788639100557353 -0.26569272902757085 0.5548312752296621 -0.9933412755444248 -0.39957593652628837 -0.515493990897456 0.95011745431591 -0.3242698606291311 -0.7875815378862308 -0.12762616955643588 -0.21136749912297031 -0.2969994460579559 0.7298878980521106 
-0.9671965043000547 -0.18922416122807975 -0.6618092979794933 -0.3651837002457842 0.961768808763173 0.5131693344060962 -0.5378041511930045 0.23577334954760526 -0.016320211238876968 -0.133998524525192 0.7489997135504421 -0.7660748106406574 -0.5214225813629046 -0.629081877164382 0.13339727013075198 -0.7864735791635661 0.23566501975878065 0.10084182025468033 0.079759943411102 -0.4164963829376126 
0.052973307807237836 0.48820359089689547 0.09734029585430194 -0.38121548653417336 0.4690651339920638 0.9151814450893454 -0.9100002808452408 -0.41580694824188175 -0.09561016307047199 -0.5659482226856425 -0.5443198874531646 -0.011241379306161705 -0.6145932950372753 -0.6189258745053859 -0.25468990299816285 -0.9202726495717978 0.39989922315380166 0.7174172742962768 0.9199746628492169 0.4858469446060702 
0.20273038917937083 -0.7130940541576827 0.25372391226034163 -0.6404489065768603 0.5225703572618022 -0.00738807431086098 -0.48101374134090474 0.1669205737490036 0.7379571150598754 -1.0449022980142002 0.28998803961454656 -0.302449788023771 -0.8816798773890449 0.5660548401277103 -0.18860781054616813 0.7790277913865946 -1.0207134456723814 -0.15778543940683012 -0.7244031297172354 0.6047725573858593 
-0.4037687236903439 0.5086831640457459 -0.6137506201850427 0.7110896465260605 0.8773162723474709 0.2769035145908553 0.07357213574036238 0.45468947755308947 -0.39355819559147137 -0.1490644576791177 -0.44762299740889566 -0.16067962709008662 -0.45615148178562487 0.5052326187395848 0.13853096520589422 0.3739169143639874 -0.748377397110402 0.7233904824093954 0.26243407450583817 -0.80479044626061 
0.6987486936769275 0.47017103786698444 -0.05439243045956443 0.16586915554115864 0.5327882890192764 0.8731755686292729 0.8241088556093984 0.5908777076886704 0.8295012118049324 0.10540987483523674 0.9384735126200939 1.004830778932694 0.5062056570860765 -0.6474784523636149 0.4427883123037192 -0.35938840550711454 -0.6103046194217616 0.35319256714421504 -0.6371277344489379 -0.24658253670372446 
-0.7168429877810674 -0.40427774257516663 -0.2147400892874999 -0.9130704083544405 0.48152732044412344 0.6175324036076753 -0.917916614084447 -0.7108879019788195 -0.782379015763457 -0.48839247754848164 0.4698480794159781 -0.19518569212066864 0.4784820247449594 0.8134261799475143 0.24759426812903748 -0.10618074067530119 0.714513368210222 -0.28031112707602196 -0.2139050716686932 0.8093710058128389 
-0.4549159920015972 0.7236109623982517 -0.2562043516514704 -0.14126521397064132 -0.7670178332595669 0.6345758764219293 0.730852942679072 0.6992815340852907 0.6831757323621092 -0.31318156314017037 0.7396588197103826 -0.4870761238472691 0.13889189676995772 -0.20250906685212222 0.6846293772275986 0.9924143535105756 0.6419948927709354 -0.9191606545986698 0.46195322364213026 -0.03516694273244355 
-0.7523446976997208 1.007047741849197 -0.5204663008868997 0.8155354397841247 0.14225317524515643 -0.6025702518165206 -1.0319793817640361 -0.5488561656557296 -0.9095389934238196 0.27838472131331016 -0.07704634740310194 -0.30861581451890946 -0.6871117113780684 -1.0089397560355633 -0.11801299417745412 -0.8944941347124941 0.6067024734925006 0.07200579018381889 0.9188200422910243 -0.05129164626764739 
-0.7920885141777334 0.6691013803274347 0.8970724289219842 -0.41528922026608145 -0.6160678240779492 0.4973117473066236 0.06437557814839678 0.660693914521474 -0.9891300941865347 -0.5438234849363215 -0.8810605714002191 -0.3970090321697404 -0.9120122804179069 0.8390547124019392 -0.3282194187158416 0.023242225704020077 0.9046595523267775 -0.5749323455830433 -0.6254285549301137 0.13410529197317375 
0.3429732573795005 0.6396997501000394 0.6622012532536767 -0.6243322016691423 -0.08050492693137433 -0.4719138005700478 -0.7085631856822378 1.0592419182258066 -0.9494339891725895 -0.4456523284082286 0.47552586363734506 0.1849446514506275 0.2564802177789372 -0.8410179943230396 -0.15132509435936398 0.12952984785316293 0.6874841442788953 -0.8647764675728113 -0.8558374484020125 -0.9510280336983806 
0.18135034209029874 0.6460814215862868 0.0664118096405246 0.6116763587955655 0.9229115732607461 -0.6722013565164102 -0.7003634741542035 -0.4360077667531036 0.5305620589410337 -0.09767247845859335 -0.3913843524251693 -0.5025507257172587 -0.2394050626217813 0.49890610789219103 0.2684507817473075 0.02645096332896815 0.91379535552585 -0.34458857343605076 -0.5594396411741464 0.009689169923370844 
0.8978360300436047 -0.09206018807651499 0.3893972906737905 0.8332495623724797 -0.5587578864992185 -0.18203409074324184 0.7653160785182418 0.2811366776831281 0.35760793228311916 0.20613654449302724 -0.7651180949035533 -0.41674610986496 -0.6412334700573016 -0.503084357869785 0.7357990388125959 -0.1937540504994089 -0.07525984907102631 0.2129748931972286 -0.8580445753771847 -0.4404692212980424 
0.6763918669670457 0.39162627392260196 -0.7760248908770726 0.3091159018627526 -0.8256505001618636 0.9626819322364241 0.1687285799311946 0.5077103776729646 0.3849620991629339 -0.8328409401798661 -0.8683692708560887 -0.8502247002447874 0.4732600844925868 -0.2512765026126028 0.40789877377056677 -0.5206257343525402 -0.19150662189114825 -0.27787263356721387 0.3372781283683719 -0.5713196525963814 
-0.6121715976117986 0.3127700117975897 -0.9102337059365797 0.12147308907326117 0.5494920530471452 -0.6043092243322667 0.9050029757098046 -0.5968141452139261 -0.5397236750496157 0.6919094726231156 -0.37855991982158754 -0.5040305143740684 -0.5256968776868317 0.5038760193063996 -0.5631943196730373 0.3064758459609396 -0.6514974245562964 -0.9873994400050503 -0.05545008272373035 -0.34809976111671886 
0.022659013498268876 -0.0832430619991772 0.8708331568372542 0.9025794033114356 -0.966788867655718 0.7581030423051133 0.28213213731493303 -0.26981282774813165 0.8289196154663712 -0.48004933214401546 0.23246259944339717 -0.5988817881638351 -0.6919852328343693 -0.19563706513330018 0.8969586244446593 0.4002897837220717 -0.8885802159247205 -0.19742401586552066 0.4178802382072668 0.938408755805063 
0.6209789651312105 0.7840107973597467 -0.7246949444151876 -0.5813008847198496 -0.93662174176372 0.5498402377841017 0.6598318433079597 0.8456715068933025 0.838731479267938 -0.19161445061293747 -0.15330271244009563 0.9218587337258688 -0.09657037750646373 -0.8115718460463119 0.07099462195923983 0.7304962749193752 0.7595236445907577 -0.08464008593472333 -0.022147111858493454 -0.3895749601697123 
0.3258264827356799 0.7535690700108019 0.9889692622322485 0.18199555044435542 -0.927093054969189 -0.6323435657203974 0.26073815221069024 -0.9059907883144215 -0.030759470633405245 -0.5524871890886387 -0.21759640730674468 -0.10730831451078811 0.7674808634147519 -0.23701136855518445 0.5394400325361317 0.7537529786645734 0.4556209151200158 -0.8597297894988282 -0.7310660260144032 0.010560499627699152 
0.2265996654044651 0.5149361982177328 -0.6680957544376781 -0.894227809839669 0.012377232484728317 0.4361981490812839 0.665600394436396 0.6621060473990724 -0.8905162045168726 0.8448441179015215 -0.3618890301194853 0.9471489724533154 -0.6089610866090117 0.41806648449831324 0.639902633996112 0.7786269020807709 0.47285513644283755 -0.5230246879781859 -0.23757396529587715 -0.8769932989638296 
-0.5450841781726367 -0.31456113005944586 0.17549821514435834 0.8679867242245937 0.7533935217675098 0.3423181945149821 -0.9089049490976201 -0.4836797636878449 -0.8786301747231778 -0.6275973405270115 0.7912478643520198 -0.6629382409064128 -0.9242227768558873 -0.5122954083425357 -0.4968849072133005 -0.4517847419857825 0.5083858966311685 0.7225265051395782 -0.1997140853566483 -0.647319768522949 
0.598907703948168 -0.09777928177618618 0.6631728722423992 -0.5733965781990329 0.04374582424702658 -0.7368619608027858 -0.2741507680283917 -0.4920361943774482 0.648797204146077 0.6200350896149319 -0.8883566056453561 0.5422659412637166 -0.7268565744633105 0.8590667667483813 -0.5478394931236257 0.5866031072198186 -0.08747499655973319 0.28680534979150696 0.12455600497892874 -0.8549845056887921 
0.31895335293668103 -0.16819902469818682 -0.9010479710311987 0.04563580405740297 0.039579063942279946 0.8461984641103919 0.9549015201918873 -0.8190789460904799 -0.9792152242353975 0.03159986981608842 0.5525613674883232 -0.8516616605174994 -0.6440688244367152 0.5645395399262818 -0.42682707239483886 0.30007461390630974 -0.8411215481130019 -0.8298287140898548 -0.3825569580988537 0.63116993308507 
0.5367563428638455 -0.5874083030092223 0.967734458429033 0.8275806908064993 0.45053389604749405 0.8117046744592997 -0.12360450942030621 0.7433549064622733 0.4943556636304549 0.8058287345777033 0.7521344929354437 -0.8526920416644899 -0.6703491645270796 0.9354019174061614 -0.20167313912738138 0.9552754849074199 0.26944687671766565 -0.23392380074777175 -0.3978598064388117 0.9525302760082683 
0.4847853780611695 0.27361374026222296 0.1716643433067906 0.41530421448109434 -0.01867579527864982 0.809457560214518 -0.8358754416214094 -0.897375242748645 0.4840641590081274 -0.9527595369094788 0.629933392794706 -0.7595456761344466 -0.4228946327879157 -0.33531970659497556 0.42128601178058545 0.8571617079894842 0.8983351791372423 0.20861221732337776 0.02179382354594339 -0.48464302430577755 
-0.9855627007099974 -0.640709446140972 0.21261677504185708 -0.1485721515390263 0.6098083448649435 -0.9214387647682546 -0.08488167816166778 -0.6934551120551157 -0.8842667386603282 0.3534678953639925 -0.29802422927576877 0.5146138895705746 0.7453348867117213 -0.6349689034444027 -0.0934565045315498 0.14243932992580854 -0.4489706146027647 0.804559204460839 -0.15167176886148345 -0.8631587322184524 
0.8233901902075681 0.5960615637720289 -0.687303080084658 0.6810326555825008 1.003116453220964 0.7613352150539106 -0.3756347750354189 0.6945002799424962 0.25826952032253964 0.8915928832919906 0.5224785025396154 0.34803435016548645 0.8928825721786078 0.7502736391081005 -0.2738159201707257 0.4113936522572025 0.2219355044415308 0.9713725756432917 -0.7272416343139123 -0.022892034410368797 
-0.06850327705634213 -0.6115631987999853 0.3293064265287369 0.713897164266031 0.8974552719588476 -0.5641397559876058 0.6537147053056941 -0.504471561019375 -0.6958238668353769 0.6010596324537498 -0.5601167799337932 -0.19046233297380533 -0.16443985120412077 0.028237892718491836 0.3009274374766541 0.1388312941310489 -0.6829309146754426 0.9024328119418462 -0.3703475225149184 -0.6143130210247189 
-0.3422617161336725 0.7472870486942197 0.6453257716797374 0.3616882907748559 0.7431229787958602 -0.47305193090131237 0.32777574128608766 0.6673138195564368 0.5651978740823047 0.9311205310495966 -0.33428318935603224 -0.7185466046742519 -0.028301065004327518 -0.5955914642662619 -0.07297909723655319 0.98953187872759 0.6119504632239514 -0.7990181479927704 -0.033207813307337054 0.9512149953061501 
0.27368105752505406 -0.7802586938332037 0.5457866257082089 0.536701226476507 -0.8284095896136936 -0.683442201723768 0.4819286597320869 0.16264931247190853 -0.8349280991668515 0.06723133288112923 0.8113838641928661 -0.42282725621769945 0.010086769306609148 0.1318455899796826 -0.670568199141885 -0.9368392273258994 -0.522574878006578 0.06852230184108297 -0.3637390633363123 -1.0066794926977642 
-0.9220619589716822 -0.5741726080934482 0.27117914356038886 -0.8303835790817049 -0.23551702339367903 0.740818261341723 -0.9222247338560271 0.10319802254287103 0.147491097006888 -0.09558286382209324 0.6029884868624192 -0.3000812311123925 0.06868348826179743 0.6830200424331208 0.1625609115393941 0.03640907490455543 -0.37368485895728826 0.6034210253463488 -0.639883471016549 0.6965927051105943 
0.19176374873204896 -0.08943911977317909 -0.5884320953995338 0.6550061984301714 -0.658725356626953 1.0038430741534297 -0.21225402708108054 -0.5379994616236664 0.5092370536993774 -0.5464784808114217 -0.6154104751343699 -0.47323293236963276 -0.4422130082092151 0.11624967984203276 0.08963038944042992 0.927688291648862 -0.8839367471543355 0.2087783945985493 -0.7884441272786177 -0.8396378990100771 
-0.8688870330893068 -0.39350257214002093 0.7732662438700496 0.5662918306782941 0.0036426228440982217 -0.43315412682238097 0.7444666158989096 0.9323755816722726 0.45839168043269013 0.20218819473844668 -0.31784195771006907 -0.012751360407364819 0.24890214815810832 -0.7404693567827864 -0.11478832309723584 -0.8269547715858974 0.2847936172311853 -0.762999544971981 -0.8398926555719559 -0.8099592773542912 
0.09994088896156644 -0.7936832673874016 -0.888664713047075 0.09003998302877367 0.164384891565158 0.5189129215231576 0.10262143888361507 -0.2963474270060729 0.23887942591226616 0.3907464589518894 0.7530760391392644 -0.574491258371767 -0.5935808225443927 0.7890166705882937 0.33550015162837243 1.0249599225397623 0.4571829577146256 0.6862503973971987 0.04854930684731769 -0.2928434046954426 
-0.5292351222777657 0.8164372372388937 1.0106090968120762 -0.04029125092944999 0.12881612534890372 -0.7616688866648766 0.4420737245432849 0.022768810108174928 0.47915537607346576 0.5885939771183673 0.03390067192228106 -0.4097947453207391 -0.6047310264353675 0.7245292747862279 -0.269827544677961 -0.10220995418808093 0.7336250818942098 0.28917281972410086 -0.06897023128903264 0.7115992545051111 
-0.7028372332550442 0.39296471009479567 -0.8476365047603065 0.8287479661082562 -0.4702220163642843 -0.3364157694695736 -0.07251891640013107 0.035695442535340946 -0.07646706471092118 -0.5612068114611107 0.05429862224263513 0.8838064066589665 -0.1787275777819203 0.018270286689721204 0.2015417087810634 0.5861801544684135 0.10010525110844527 0.9166155821116181 -0.2401666128177641 0.4921973440143063 
-0.4390420115669693 -0.3413900362486928 -0.25589076856496895 0.6957137771802487 -0.5545482411307346 0.08695707429708796 0.5226147429851976 0.25853656555532617 -0.2202952911603761 0.028530591497109625 -0.9003737366467858 -0.40476760995904404 0.34972027255465915 -0.7666054299547989 0.24039859561319543 0.1094305990254013 -0.8908526397497163 0.6010196321279775 0.42269114890214554 -0.9613228781209749 
-0.36579574346064236 0.7350382005226616 0.2800312318448598 -0.7703501677714842 -0.6170615381891339 -0.620477508999391 0.39010781659411065 -0.730859767209262 0.24578069134135527 -0.33289367065428055 -0.7576616024162701 -0.5454290704036108 0.038109378069644775 -0.04289535401506937 0.29557275028071256 0.30267818037127175 0.40651652395049226 0.36960561388237173 0.8373048883127918 -0.4496533269782467 
-0.7229171129004319 0.6718823177601005 -0.07394966845251706 0.9398783775383149 -0.8756183518071736 0.04014693875202506 0.42154473656682423 -0.8578412568738365 0.1863181596790013 -0.2530211274215763 0.34453610317279865 -0.35752345747260644 -1.0994787654176212 0.01676563867954733 -0.32156891342199845 0.33918744230241044 -0.7906389416728042 0.16686095304825715 -0.32056337897925874 0.9656948550116667 
-0.2598919759307584 -0.7305504873973917 0.2703747981230559 0.24381998284180043 -0.7463795918658906 0.5720781945167076 -0.6768076067864367 0.24216563188023846 0.8266636894842626 -0.6522716364949039 -0.06817277481477868 -0.37671033488245775 -0.11654987014389316 0.5533580166512617 0.08034702447025062 0.5862186585059252 0.4316704309381468 -0.6001957713371637 -0.06649575333166487 0.30785235033884856 
-0.3941320354910497 -0.08294191831097324 0.8288661263447967 -0.540389959511882 0.7957579334060597 0.8796540851776129 -0.35532861716918274 -0.7976526386850289 -0.5814032290698116 0.7919514685876706 -0.9085447357671355 -0.4260563415753881 0.1731589709791827 0.8203360560010576 -0.4445004198221332 -0.21899855580743693 -0.899448756730381 0.7354721244760268 -0.23045955426735842 -0.4238347219053928 
-0.24470209616420202 -0.5509432448352518 -0.34524140894935323 0.47132263763370624 -0.05166390843763103 -0.2636011386998892 -0.4294463306360352 -0.43330337973266414 -0.687063182726689 -0.15239085581732234 -0.8883126922058433 -0.5004504862022425 -0.2359758069834848 0.1115434443253385 0.7148022859368945 0.9997086980782782 0.5939918293570786 0.8262738660188039 -0.8866596249260891 -0.4219510048035979 
-0.8717226741493979 0.3870061907024193 -0.5405133194828087 -0.8308816656527631 0.7079367272838496 0.5534897904273335 -0.262160963712448 0.13944966251819288 0.23652252401575627 0.7176583996532319 -0.234175704726345 0.6044748559936751 0.6273639551791254 -0.582757569041625 0.14172690291550388 -0.5126859781735211 0.35239257693910264 0.36735490608777444 -0.062017326876540546 0.33445630707588536 
0.5377335383890479 0.009833864817086459 0.15199710358695948 -0.6610841389402455 -0.6306678883207606 -0.5254661545832083 0.2151480869827447 0.057185532513400354 0.478254927954802 0.547619734982527 -0.8635819257617439 -0.6441933237398793 0.5931837857544916 -0.5400030361355724 0.7617934532219743 -0.32888567323082435 -0.1535767153888578 -0.24828672005792987 -0.9126115137345998 0.6805272532252626 
-0.44323496305932214 0.916794964045081 -0.24206552249609034 -0.6882708784454115 0.5562541572890921 0.7199803846835601 -0.4850043185934419 -0.0363815555823093 -0.39359777172068594 -1.0450387051649574 -0.015685169759348878 -0.5233744581129846 -0.05764880809463111 0.1121957880498898 0.23537260150133293 0.773803720762422 0.4293726153495571 0.9466777042397253 -0.1589761960649257 -0.9642891392397572 
0.5522810394595171 -0.7463599149729434 0.6014832444666522 -0.32169711066146894 -0.43557585180339914 -0.08689608552444957 -1.012018801581125 1.1093883693440423 -0.2912200787489418 -0.5832611423077666 0.7543421121367841 0.5336966774675542 -0.5046378692582664 0.8405289722176783 0.6886008893778381 -0.8922693700040321 -0.8835684713804227 -0.06725713311205213 -0.13715154588465592 -0.17233220640061567 
-0.49589287003406135 0.9516438314292531 0.2574257919546473 -0.6596434826562426 -0.34837016695885836 -0.48694774171914273 -0.18699219025787317 0.5263237416239622 0.5237936300611344 -0.7420396000720055 -0.6766496571483417 -0.12744906778002046 -0.3613372924897357 0.7266790070847425 0.1162911930259211 0.28445637473546687 -0.5312628669665606 0.16678360009270993 -0.46219923538345975 0.07090365196959912 
-0.6364534320630141 0.7207148799495581 0.6931234159076238 -0.2148174695580919 -0.7031734215854387 -0.6244079832759843 -0.27333848697495833 -0.18605803933704276 -0.5710020207004575 0.664541890319419 -0.4862538538692132 -0.5754217438947893 -0.6371757172755659 -0.3822493771655501 1.0132329755719058 -0.2506537117945835 -0.8660827650552324 -0.27342906453927396 -0.36068221379438375 -0.7925892837424895 
0.3369626681638574 0.7539626381292559 0.09515840859403087 -0.7761132615074896 0.6344647376815625 -0.05777559302181427 0.6994963090855509 -0.05956017489201959 -0.7612986689413818 0.9574237103823463 -0.41802283970800314 0.23529943993444769 0.4847415292878952 0.7301263159955687 -0.6667827573235474 -0.6764049704959912 -0.0024492086222361424 0.14103203328039446 0.1270505568247301 -0.7371588460911703 
-1.0064472553006472 -0.2485697733468298 0.7371139409055573 -0.643904707209003 0.027862544817932346 0.5502235876002146 -1.007421740283273 -0.9074386165919948 0.6863912295516612 -0.6655767335887007 0.7478774324970755 0.06370731126446812 -0.9716870982423287 0.8388409842391841 0.648743962866463 0.09090637766631972 0.9204903688063576 -0.506567478089016 0.37733091884883413 -0.9856894310715885 
0.1466320374394168 0.714678522460118 0.5071223444220307 0.4704154435824124 -0.579198236615038 -0.08824477894941773 -0.22652620309941915 1.0332917351788227 0.27010590930740497 -0.6510338546171757 0.9239067215810788 0.2609902736051225 0.6679383057724816 -0.5801877934991042 -0.1685259579724401 0.04527985940150603 -0.4374130116338112 -0.6797322194873086 0.42190850979814526 0.23432941343323657 
0.7213870698339756 -0.8885547454915915 0.6060086335925047 -9.732749239773535e-05 -0.820333439055905 0.34171614477331524 -0.9343856297658205 -0.6939566359617426 -0.050863265050543796 -0.47893791991987145 0.6750479881736166 0.757457346753926 -0.8486583159691033 0.015769980348293987 0.6807851144859463 0.28776875156181214 0.9042333757162245 -0.46037112082746384 0.23947143073861818 -0.4190491114517582 
0.8943443352298747 -0.8151569405769307 0.09923717703374274 0.7045344371924489 -0.16128436800207888 0.361867417628195 0.34781030698281196 0.7787812633294459 -0.1320152831532528 -0.8464113783667299 0.3530335892154046 0.06221974136731693 -0.885019149718021 -0.7695232875580791 0.941531214541658 0.35419788666179824 -0.08927161638408586 0.45026212076830185 -0.5592922170607202 -0.979608524874291 
0.7888234811257163 0.4107749197285788 -0.14017649117983275 0.7240306943007473 -0.6486652624790111 -0.17022665031475584 0.9653877332709457 0.6997922269154437 -0.7167027998282256 -0.6035461275236861 0.6567361463565883 0.5579275653028212 -0.07406415694400907 0.6075083184209384 0.24664254724177517 -0.9666651988538044 -0.24578153062210623 0.526847159356226 -0.9263049417757268 -0.5893325276075405 
-0.9865683093657844 -0.4129871622633081 -0.8402677335655473 -0.4761725688924672 -0.2589340223094543 0.5631979269804255 0.6341941848359991 -0.8286206273647427 -0.36775836518754823 -0.09624454938601446 0.63490563018384 0.7805889605494707 0.11458896105197258 0.17998032641684625 0.5083770042976261 -0.9111961212529198 0.7884312228668582 -0.23375779933598806 0.764948159075693 0.022796593846462265 
-0.3513211226496741 -0.9328647098257601 -0.09680061152361556 0.2854419210580736 0.09693787605141471 0.09129112050526969 -0.02977554121138059 0.6528237132665486 -0.8034362968842912 0.6497879211191433 0.0580080170723246 -0.9594245797900539 0.858733186246634 0.5450296312618768 0.6380621152559282 -0.9724683131710519 -1.0205625441806514 -0.44270158057548537 0.7298035212441867 -0.9797751343025841 
0.22583423991155546 -0.2634831547564202 -0.8845831285048205 -0.9490116571243932 0.637964054667246 -0.5900508599500924 -0.8767689474759005 -0.11904137171213604 -0.6646374274332807 0.3681610646531346 -0.44269340295404297 -0.4068046782876725 -0.3309311582537016 0.5713256191923664 -0.07139630094004232 0.2384179108469681 -0.7469963368518088 -0.3439644186873231 -0.9869018075925098 0.9553238871454764 
0.30257012754268475 -0.6385265961343756 0.6450682617425891 -0.7320781937519388 0.9494370815090071 0.2448662305383533 0.6493930380827807 -0.47606075633008504 0.24495336754527755 0.9330173414675244 0.4628397106036662 0.8097111625469224 0.08587033220544774 0.521594880294059 -0.5335129501127176 -0.9803031796305179 0.5829239592580915 0.6962128826426105 0.49852116190241436 -0.6080705198061027 
0.00496258902191698 0.3676313155530905 0.16774507723231558 0.7485846577082411 -0.56444464278033 0.2803644590969526 -0.9068278217882504 0.3428987967424723 -0.7838388525846083 0.8798113072262209 -0.7215669850542931 0.02778338985529691 -0.8629966011510574 0.311118982655721 -0.13581270799799913 0.589342037693657 0.6553583899820304 -0.7384213031720247 0.3901645981383906 0.030415350881800286 
-0.29365668743611173 0.9700170732033484 0.5472811958706905 0.3234139240968871 0.3468295749898842 0.3437803475261047 -0.6542923938100901 0.776247441565785 0.8014430900186682 -0.9172422052182261 -0.7185688897635136 -0.13574347557885275 0.9836148087987396 -0.9486098486306381 1.0035191110111554 0.7648284334506724 -0.19272067364273798 0.3482173201016494 0.26540856028510973 0.5942765540551276 
0.6836194270993499 0.8311377500657143 -0.21395882792144713 -0.6488518742917535 -0.44617606864347475 -0.3420662721915668 0.4564339409888297 0.7798744741208588 0.4755514819687345 0.004330384847373568 -0.7166822516717218 0.9770876673352696 0.030550068649891945 -0.8741500477031569 0.3068302173292445 0.558263971350735 0.4649014165355907 -0.26681398088951236 0.24231988490931308 0.15731780106187887 
-0.5251972096976073 0.6189379126583492 0.19300600755570851 0.7709166293363252 0.8209337048593099 0.646265048055106 -0.6084929404040916 -0.016951560154717216 0.20231665490776754 -0.7335947383440481 0.5132269740231773 0.4000290849682823 -0.8987491296223598 -0.64046726975429 0.00910463151220328 0.3939241680760841 0.7624739151940716 -0.3024201787052492 0.251367051649802 -0.6875525653142981 
-0.5535590183490658 0.28174866037856106 0.307467417167432 -0.7771619461351986 -0.4995692547607823 0.7586880564551477 0.8532930542143599 0.5996957906828273 0.6850213041631763 0.6182648058796426 -0.6988168857286853 -0.9125719170006867 0.5490002340186162 -0.40774149846069113 0.40890680200150525 0.4139756776780385 -0.8541906921169692 -0.17220144880179475 -0.521925446502739 -0.9448658507747942 
-0.022146392717290957 0.17313043348633833 0.5590589065308514 -0.22034946222776583 0.28506369678689925 0.5722245867791474 -0.7251747418342488 -0.19645820606936146 -0.5738887466639442 0.38194208326306983 0.28539850306608594 -0.0048307524054222355 0.13370804497873726 -0.17020881332399687 0.24820695581372443 0.06574421037833611 -0.5133382199665353 -0.41943985494179475 -0.8310775521184104 0.8415983691197537 
-0.6718731591603306 -0.09621331742934687 0.4790814106204958 -0.7272620611209731 -0.7512926735164184 -0.708436579751849 0.6868596066417394 0.3596963280393992 0.32284953576328185 -0.9794374458057882 -0.19975328020270897 -0.5605316971743043 -0.5856933327096231 -0.2131164892888082 0.7174624640003097 1.001731152637623 -0.3515757787862047 0.7110891196694553 0.868996684579153 -0.4014531892358713 
-0.5104956847339817 -0.6447566049958151 -0.046280592899257365 0.6468546411958237 -0.602227787114186 -0.7709057850648112 -0.4193081876589657 -0.8554714304667567 -0.8703989819703759 -0.5392188528563727 0.45532433341141043 -0.5763653315655026 -0.5928810529153722 0.18860488030751607 0.4644479170143466 0.5906513414129265 0.16557650653261702 0.382122735754943 -0.4676580097992683 -0.8395258351977336 
0.4035841278725058 -0.775537904788264 -0.6024927555644551 -0.43158480916704767 -0.7139890646213413 -0.4478047209446697 -0.520721917764822 0.6986316804946195 0.7975671035568491 0.8690042622921398 0.05771203514783612 -0.9255176428047357 0.9205241519313576 0.7782458082079108 -0.4466438207861551 0.9031084626911104 0.7576032898895229 -0.3303619840088297 0.9172680092916841 0.10409827007228442 
-0.31482081244283733 -0.7081329469945775 -0.05896166025896882 0.7271966787452324 0.8605256545290866 0.8273430927206017 0.15099441724964244 0.8357401430330036 0.504063561620329 0.103567897722229 0.5516327211198995 -0.028113795786111048 -0.13417247119317824 -0.48645786127513135 0.39623294014049415 0.022226316568778732 -1.0952376104716293 0.7171502449873474 0.3230853139135072 -0.38318334884356653 
-0.1567790637003675 -0.10552341170211235 -0.6214903374171223 -0.9593315968122025 0.13160107454369538 -0.6064509594051956 -0.2363139232953511 -0.47273391890277194 0.32923277086051383 0.13224207621828846 0.22503032650924099 -0.8660384959905926 -0.3505756370744756 -0.6591951397580729 0.3492478880759125 0.7580354194919472 0.49532941554127125 -0.06546932702000995 0.34165125722198103 -0.314572312858637 
0.10180398701372903 -0.7505816020982111 0.37671200948408073 0.7311527759300063 -0.6095712687279012 0.39459296581580555 -0.9097552411415738 0.8074060711859234 0.6815620677774081 0.3378976960411699 -0.8618235422071711 -0.041219795012482255 -0.9903423936877401 0.8515727312766611 -0.46232452798586454 1.0322871857997977 -1.0979787689149234 -0.6203051469940731 0.3731986798615164 0.44506238504297896 
0.2892037134489237 -0.02677968326338653 -0.10331176165945218 -0.5840804301858996 -0.05097450742714608 -0.5223365662474184 0.3815272763905633 0.3770267995194034 -0.6233043218298079 0.012767113354531987 -0.4701690292887518 0.556946234550299 0.3833443626063013 0.6768294704302976 -0.25256972046349163 -0.0926345628570911 0.47414652205466995 0.049391981790267755 -0.18624538662629178 0.24293093425399315 
-0.5300818445722958 -0.28492697553438845 -0.616666767794107 -0.5512582539931041 -0.8955500281120485 -0.508905867723259 -0.7757159778083497 -0.19759819712791818 -0.9096427185915599 0.9491865523077022 0.39781557662414513 0.6574268960586863 -0.10708871863790136 -0.08442282484967013 -0.29266098283123526 0.08411286666820361 -0.13187166246915236 0.03841634042204233 -0.8275204413708429 -0.46754401971333 
0.028575979260183418 0.5668406138132895 0.9526215545554476 -0.5978458904545778 0.15850150416241726 -0.6156444970459388 0.8945106541696499 -0.8163775971433903 -0.46957118853448837 -0.15548683244305017 -0.2423190315295559 0.3263635921279646 -0.8136372704598275 -0.310286150164849 -0.263872534501936 0.3745711982322413 0.29115538746013064 -0.6646860128692165 -0.2509456889913941 -0.6500423680980941 
-0.2758767855766772 0.3834358390375931 -1.0645972038916705 0.9288280302812598 -0.3434627268661839 -0.10049244924584645 -0.9671145931621102 0.3727171312957655 -0.7932282638498156 -0.17898191343332762 -0.9375141270360883 -0.30491753756675893 0.5107341339461625 0.4788134320511954 0.21396819040389348 -0.08808483632510947 0.5302728635059802 0.9793065634836312 -0.7623054186282566 0.5598879180853678 
0.5045488890203642 0.7153336145046916 0.36107477119766057 -0.41663803566366375 -0.9873516605428934 0.2514144794930555 -0.4226572116651266 0.5441038346733321 0.23332747614512123 -0.5720499960384853 -0.16771980613344903 0.4566973756991781 0.5199477682140835 0.29483321949910946 0.5307240428172556 0.848096944528025 -0.46199298892894863 -0.04176181838001281 -0.8107391909226738 -0.3205385126079209 
0.5745357613897285 0.1799391085421903 -0.3153748132619072 -0.14874338316053226 -0.2142426724101955 0.8931723322924269 -0.9202808596009393 1.0397307452860973 -0.753973812849617 -0.7339962496930748 0.365823169110097 -0.15323257114741098 -0.011905949695981879 -0.47002200579275205 -0.5552043431984347 -0.6740239668992732 -1.0360745632661665 0.7235085491661074 -0.08393654504529366 0.24572174709054576 
0.568873378513574 -0.17951785503101317 -0.36925746062677217 -0.2591082081235456 0.5286708747071689 0.38267209606465297 0.8087538525364889 0.05501764358663197 -0.8761810670168287 -0.8658828890653039 0.028749760737914173 -0.5243553551771144 -0.6817720382952278 -0.346278158448565 0.8461219240035245 -0.009478089874484319 -0.25900927096949633 0.8009807059718493 0.6337114065539704 0.16679700832937439 
0.4403485375627292 0.42988568318747117 -0.32066609101097765 0.41615685911360806 -0.6588819424592492 -0.768043290214637 -0.6122382194810188 0.4615068657827696 -0.3884853598280342 -0.8107940564411457 0.732302638056743 -0.9480831578439383 0.5498402446924539 -0.8362411097508838 0.17230894380843165 -0.6619395675579753 -0.025487356382070458 -0.6659863358847533 -0.290177254590731 0.4544914394886227 
0.797092581535192 -0.22713613780408942 0.4269231496352982 -0.6220067860672023 -0.3391988614423429 -0.24055331376697245 0.30199069125653527 0.7660225956054688 -0.4370181152843936 -0.9996959003855519 -0.6659239664681388 -0.32669516933415177 0.14726109771679688 0.2321052763190284 -0.7308584251286186 0.03462460125498067 -0.8174090669137337 0.975773435434418 0.7934004953725352 -0.21017453161723157 
-0.10213266704580079 -0.24626876552899257 0.7015559892007058 0.7283192989095816 0.2494123436094778 0.8462564160375888 -0.955477727389571 0.5919288507595876 -0.9048216890280811 0.564324270939925 0.5293411541584735 0.04589304258941231 0.03727423039895989 -0.6964564068604893 -0.48470866636739146 0.7529032145994143 -0.7018624497499297 0.5948531335174284 -0.6348201265601263 0.847393856863761 
0.9212551590972649 0.9026260267106014 0.5239069222678248 0.5772068384041212 0.5630035427443218 -0.12284779942447464 -0.06648120007626981 0.06390772026289218 0.3856236360798846 -0.9308876198260663 0.8906311019596623 -0.4372527586157817 -0.5537624081791969 0.9117152647725754 0.5427983869031068 0.019636778816340815 -0.40614153527918984 0.672682254527602 0.8640748322961173 0.44610226011517046 
0.39721456552347145 0.1011603295257997 -0.6388272387342468 -0.632099695202984 -0.5816923922675515 0.41827763035024673 -0.31354957991286836 0.1313241401811388 -0.7553520160984063 -0.7066570878115493 0.11651553139135633 0.38007618287086925 0.1253401862115189 -0.17091157137927085 0.7208752968441703 -0.6074238295455429 0.2596765952036839 0.6561783699348394 0.10908245183370584 0.7390790921849724 
-0.8952879547634164 -0.299227825560927 0.3944163215204592 0.4926177932190415 0.3412743848657482 -0.390893657093672 -0.019189184811922638 0.28620042117045835 0.6415410449151466 0.7835858618310434 0.45131904110520227 -0.30368837649595065 -0.4655505958551164 0.16224744711891256 -0.13792456940429282 0.5948723664432561 -0.9679876555529292 0.6321660456831384 -0.7684232289443699 -0.007493264071286213 
-0.238308676491769 0.11176562081705145 -0.9538186972367915 0.05175607070893939 -0.41378275942133175 -0.8272977042773245 0.41662199015574425 0.1597944066118667 0.0032222250136480987 -0.97089120883274 -0.5838146712256918 -0.9267676220880164 0.3180516601581459 0.7172559458069262 0.5387239947562585 -0.3794238101793299 0.8220541341874491 -0.943095142540609 0.11507710479750471 0.16629884645533366 
0.653855027604667 0.877706683826394 0.45859798795706613 0.5949386695317523 0.6069737383537458 -0.8939518215091649 -0.8232433940038726 0.28355980589956287 -0.22021237194583818 -0.208489061185463 -0.39740002915625827 -0.9449243185621466 0.6636418357821608 0.8689268625563246 -0.9177036135553073 0.9624890501285859 -0.3324023511912566 0.22179478651003606 -0.547880035662514 -0.9783719471700424 
-0.4710397387693915 0.17398112196691176 0.595809642429591 0.7246031661655181 0.9032640150662914 0.6535953195761434 0.26309898811824023 -0.32619909138015535 -0.5115283318475613 0.14040774324235614 0.15644817540684827 -0.13867738921292938 -0.9558006902123642 -0.19337924992875105 -0.9298079533020314 0.46868269242582977 0.3655494488192871 0.6013779368191887 -0.6543474767767722 0.23169149691747 
-0.3588709111995312 0.3515569484891983 0.3367341168538278 -0.9749656195433452 0.4173740274663438 -0.3546016917297605 0.15638554935536164 0.6056694260434037 0.6021711677715793 -0.03924311188208107 0.3810809915311444 -0.9028441925598105 0.7288193540482453 -0.3734891070218649 -0.28585000936440763 0.49685257094105073 0.8056264509263389 0.7613854134702145 0.008451915004693777 -0.6332299005607518 
0.2909004001854495 0.8330136000569753 0.10657664387547319 0.3425854182644303 0.07426575750549635 0.4048501694422804 -0.779642413374036 -0.30393867407507796 -0.8955119448593665 -0.9412227540277673 -0.9832317250203904 -0.6944229833487235 0.2286923570192412 -0.9689250555484104 -0.2336051243033722 -0.3665101520221403 -0.7595270911737848 -0.9780356433536237 -0.2846890640497285 0.12324163422770829 
0.0007951261988088893 -0.9541182694283342 -0.3112342148283145 -0.7641211400572434 0.3950176845370457 -0.9561477094249482 0.24762258490403502 -0.10896905605043564 0.5704657617548587 -0.8000938652747709 -0.3679688861694761 0.6575780325314956 0.03044951824797778 -0.3020995733728858 -0.6004262873164525 0.3475892903842308 0.8398357171010532 0.5079659138592534 -0.6519084313472159 -0.020448066619970996 
0.9412330990313417 0.8535149008389061 -0.42454948345542 0.17783190410221064 -0.8110164409004262 0.18202718187225866 -0.812329114439483 0.028705654565782897 -0.2438276496621782 -0.7171226068651118 0.4172506679130782 0.2939386514711368 -0.2024758086780355 -0.46076670965397154 -0.8593555118530157 0.6460092186441256 0.4015792416419718 0.9334405855798056 0.1357480636276092 -0.25425871831433267 
0.8741042504060376 0.7838542723236834 0.48775812026642934 0.5881770933047034 0.9171607980864281 -0.1949671696396621 0.2519989214384173 -0.7278739725021217 0.9672161837403469 0.17149287102605903 0.7069057508352035 -0.5734420340044368 0.33107050280064043 -0.9738820623504078 0.7020408555332985 -0.299900259033706 -0.45530500719926026 -0.8083725752901528 -0.4557729858560936 -0.5942005929154677 
-0.0055227508932434305 -0.11130782210340455 0.8429300372704025 0.020480885216388356 -0.49113921996863624 0.3038838897645815 -0.8497286514271671 0.7526146835913676 -0.39164345676489587 -0.3493457649980203 -0.9421056805646627 -0.7542393700780164 0.945705060200816 -0.7171990545645187 0.7848298542498524 0.43427926110588744 -0.41578975923186995 0.6139158200713178 0.9383943975291343 0.6798337032247245 
-0.5480386270964843 -0.14891002747852095 -0.4497763843614245 -0.9312969955452655 0.7019626083212261 -0.2388531056762271 0.4317329696167676 -0.7509499253342964 -0.3637182476897871 -0.663417453438393 0.8562594001834086 0.8854470421379669 -0.2754294258980767 0.92337712410347 -0.9344083140247149 -0.7605925507095078 -0.2816186125715984 0.1406745324453053 0.0011098256727533808 0.19326378062968433 
0.06923597572139484 -0.29820041305806977 0.08119752916690627 0.7042847583999191 0.008221550045491776 0.5134990625346258 -0.3928914239143335 -0.4771897216136962 -0.4503761575630015 0.29603463220379295 0.052202215078366435 -0.17455887628636124 -0.04875971617949882 -0.006378239624568271 0.9500073102711883 1.022474982462724 -0.31095251446602756 -0.8642055532309302 0.35568064728817744 0.8787241243568786 
0.1755624983804112 0.5361299860955302 0.5831025879028682 -0.9441431394235582 0.18683208242059515 0.8428453739764858 0.38375415184089084 0.5590674827438757 -0.7268427597242436 0.2420907340608108 -0.39672021194009277 0.6468328637441603 -0.38076213472534454 0.4676189108493707 0.46365528768622416 1.0245435573144308 0.4103387754859969 -0.3943207360109241 0.7507586011351445 -1.033287943081799 
0.07368010679457748 0.3740680685035573 -0.9055285669259528 -1.0044500514597599 -0.29736273382208306 -0.6442581148792139 -0.6417040895698125 -0.72870688564094 -0.20902448565233286 -0.35859058306034003 -0.8530780917305919 -0.21544682239767557 0.6915901359738201 0.410404115078859 -0.12073865677430437 -0.4818384392721678 -0.1598405802242236 0.9892680025095771 0.044954356666420246 0.6266298769457707 
0.04454956154827379 -0.46660795925981874 0.014151277870726394 0.35639497880390875 0.864852426987267 -0.17146568019856842 0.2562164387531308 0.8891843831847266 0.6077221400116768 -0.9034908940544695 -1.0045784706344394 -0.3163015044910458 -0.31745797241353935 -0.03438429538674592 0.3036102948963286 -0.35172882683980894 0.5321041446760832 0.17052407095202032 -0.6680152393968466 0.7292014546025003 
-0.38403263878118504 -0.48544021800583437 0.9098347451754822 0.39779966152871254 0.6004406647122141 0.07730280459921697 -0.591166191918424 -0.22934452500219965 0.8409053891537083 0.250399889223356 -0.9926311223780266 -0.6166984275504741 -0.9633950267696021 0.5422363193647548 -0.5442149181242376 0.9555027551764451 -0.7849409684046496 0.30767113146469194 -0.2520448202953168 -0.24667574822716146 
-0.021235787709538916 1.0239248124956246 0.3529124526358871 -0.9805497307324654 0.6162458893637942 0.4325406748157133 -0.6844368125185809 -0.2569462383901946 0.4739323839802139 0.03624308647608789 -0.5417904243791509 -0.1955422963297961 -0.13288062290619482 -0.406047837081775 -0.7238039519093658 0.6726164701624329 0.6496964646235507 -0.28415034423191743 0.6975021975373796 -0.42163827313957386 
0.26975562805452824 -0.5836391933726803 -1.0016122469754338 0.7445661518920517 -0.365171718436553 0.733380245147337 -0.9356076427255401 -0.3470861846792215 -0.3358597264364923 -0.6805789138851013 0.04325747448716484 -0.2916388038364975 -0.17101092564039597 -0.06351929058572255 -0.7756060611026135 -0.3804895549673417 -0.22877808096543634 0.604341144646356 -0.8130608892614204 -0.3897270918121038 
-0.9155736333932907 -0.3060114863334003 -0.6965000452109906 -0.8753031251989155 -0.8669685231758362 -0.36324575032761697 -0.7201831326861134 -0.5432168784819729 -0.0555584801637609 0.007180344088585672 -0.09233624970976488 -0.24019830070240492 -0.17471969832730302 0.35635583368844564 -0.5162453050735055 -0.8937859816117382 0.41894034577824124 -0.46977669078132367 -0.83854483999261 0.4646015412168536 
0.899110937439354 0.151132281212449 -1.1084279763748808 -0.3468602835738561 -0.4063763756664283 -1.0590547573474078 0.14102995305648813 0.45414904709333503 -0.6879931866217307 0.46788420332243286 -0.009321848980766958 0.9025992165943356 -0.4149215071948626 -0.832592397303011 -0.4950988513122366 0.04370510304988391 0.14151465607694647 -0.4100478484830781 -0.5078845681956137 -0.13422779043528424 
0.41578282480479845 0.634271687232842 0.7160137630042879 -0.15705572169286747 -0.5754525155552611 -1.0287278845325816 -0.6053464326978317 0.8350110840724371 -0.19149563071225056 0.028404710504273425 -0.3707007161545545 -0.9226518174693733 -0.12611717151055252 0.5357710725105799 -0.9158697458899154 -0.4018037341136884 0.7917175768097129 0.22275827974813503 0.21534154861251137 -0.224554235329153 
-0.35500258002664753 -0.21884659086283728 -0.16260045863606667 0.7709777750390846 0.5819289721096254 0.8318746242508813 0.19440932536125008 0.24385222292089762 0.4373584972270298 -0.09706981830843335 -0.9335860920099514 -0.8441606634255309 0.7285565637497894 0.41954976405744876 0.926567137386291 0.5703836190258023 -0.09483837963976921 0.3098804647743815 -0.5062885224468751 0.14190808882942493 
-0.865020610028695 -0.25642773528705404 -0.1230303740513187 0.23639259198516624 0.07719366150528656 -0.8337244836877505 0.43176509307014155 -0.9033860971563998 -0.006036725374577232 0.6693567356469634 -0.08590546375907619 0.32951943714507503 0.5250942647408879 -0.4305503700752237 -0.49654311882226726 -0.9105639547034222 0.008542276577686924 0.3119422122288237 0.5935121359584996 -0.23151041629065058 
0.8939244487827488 -0.23916826577179504 0.3132882004527613 0.48690762479618666 -0.48617391237047247 -0.6423679335186511 -0.11356456654081296 0.7536317004167769 0.7493063786247822 -0.9193594681902212 0.02080875199576164 0.806448764465195 0.20982174694387878 -0.34114682505645477 1.065544992934818 0.8783171144960832 0.5980983512946063 -0.7140566738861578 0.6405210552832825 -0.6989732413119718 
0.30080547977875355 0.07095867526153458 -0.8317410916870911 0.8547202191297493 -0.2888010105146773 0.14003762989884194 0.30625648088223967 0.9091171720036546 0.1447688576847153 0.31065613433984585 -0.5663440259586968 0.289395922918221 0.2977719853218783 -0.3156286056365206 0.2467384332688499 -0.5789320047901911 0.6101231714469462 -0.8812034496245269 -0.8061102563927276 -0.6856751313860002 
0.36748862068132737 -0.24667170260637836 0.8014751737126511 0.8580902642339646 0.6275458848005725 -0.829978009264951 0.1002464617924298 -0.8287831324876543 -0.3013989976143144 -0.5468017387926948 0.2570713331432967 -0.740038832404472 -0.36977645100948875 -0.8884843917037034 -0.4830714444305995 -0.3347017213072871 0.16088434607247235 0.5623788265738295 -0.8421165869724012 0.23191920782149422 
-0.8040928246628711 0.3654465151145371 -0.38489019738693947 0.6215839213347005 -0.667567288189942 0.44767015016495776 0.8835246679815429 0.9136422255915965 -0.9658731667096782 -1.1040352023575342 -0.3243856092379811 0.5327622735228326 0.19586524075948464 -0.8861502391776239 0.09147857609837083 0.8302704155511014 -0.1872586555048421 0.14274868369174112 -0.7812314241437838 0.3000192595003048 
0.19631489659692272 -0.6061192985364219 0.7167141935757837 0.0700438392945443 0.4970506642964156 0.48974039479413656 -0.8713972961540755 -0.2317212486640602 -0.08974811607645089 -0.30239958310282766 0.14204802798563168 -1.001223727541293 0.7441902339881566 0.15440345937032643 -0.4660460121218122 -0.973412057291402 0.6569956808131483 -0.865414885676564 -0.11907655207854187 -0.9768322981115029 
-0.572380037858534 -0.024287208661432785 -1.0466620968154619 -0.3877780857328523 -0.41954658094053343 -0.4060510379384963 0.31086123615131617 -0.613339752307252 -0.04100679717208089 0.8076656313579914 0.5384956583534957 -0.9440635216655903 0.5513344474395124 -0.1714162732808887 -0.3929522630232577 -0.13298140242804926 0.27871265756065244 0.2732009241890752 -0.9532065084996176 0.5840516098919573 
0.5905529466591207 -0.41434493876151335 -0.37358839465118643 0.5955429249124806 -0.09148188383914943 0.8872208916576333 0.3865789792084525 -0.7515427278025023 -0.22832493632754813 0.2519963219980773 0.06253403856111112 0.09007706401977016 -0.8939676136880963 0.7525088820889727 -0.1315517036841103 0.7670455621290662 0.020282039320112376 0.10785578446288856 0.9805305399248447 0.5254190112639386 
0.11580700349942748 0.4521511125111094 -0.5246388944702465 0.3017650066894505 0.7557688995572356 0.48861432623918316 -0.5441274972578398 -0.28023499966540094 0.1969756159155084 -1.0116544572009112 0.07707948951206309 0.6947934863405785 0.003417903915267345 -0.5735361305811004 -0.9307865218191543 0.1384952971271992 -0.21592616273331997 -0.7979532613025365 -0.34350688121186373 -0.6417233608883277 
-1.0044571934669038 -0.6085260118062189 -0.6503042660028103 0.5191756454624009 -0.42457460138749037 0.23698342359063065 -0.4505355970468766 0.08062241012581743 0.22235735207216958 0.18729489555990347 0.2700383161965492 0.5440244855663022 -0.2689345817424033 -0.7284163153573489 0.9327210475481624 0.7784069538891505 0.6715076950535822 0.8533527082236978 -0.682045573389843 0.4997425320782605 
0.6928547002164177 0.979692589725491 0.37310257496663146 -0.19797740210232057 -0.9352993521743617 -0.34343481242682505 -0.14439062511288284 -0.5358476890141931 0.9812930144148353 0.7394759695748107 0.15383255525272083 0.2639342196971991 0.82521783338353 0.8318682416295181 -0.5166551398848653 -0.5526231702159887 0.2191125707055249 0.8409152134960848 -0.3558490576532531 -0.8930996872690249 
-0.6270162350263436 -0.18107861328932556 0.5105694395745979 0.4769167656348487 0.29389426824543136 0.6669894816554137 -0.6090094798625839 0.19495069679789234 -0.45562696695465876 -0.3118681327281822 -0.3579776085907652 -0.5108540633638754 -0.17130975652123126 -0.331630998518596 -0.3895243331816941 0.6914776863850517 0.23757875321278438 -0.8676252334906597 -0.19434299734223529 0.11330910673210678 
0.8415521063746348 0.7498048758667683 -0.2519194196390433 0.9719458288786396 -0.3729535174460707 -0.4742746715505655 -0.4048645063879572 0.09628045813724648 0.2643529326239465 0.7110041715233757 -0.8654452484577255 -0.493660081258332 0.6143747416615165 -0.6954617938642647 -0.6755606439652678 -0.6848223922931193 -0.47786794912385827 0.15204693669436323 0.6694275819506148 -0.6504151473110944 
0.08979087631835132 0.8977075180946971 -0.9290478579808342 -0.5184828357509028 -0.04619575090215407 0.9855970680930616 0.3970170081732976 0.7653549156472341 0.20166270451018842 -0.010900656246849817 -0.19888829961627008 0.27846281156130065 0.506626662268801 -0.41014356263756807 -0.7756913748778043 -0.6136667870999151 0.12829207003930004 -0.5275530907565337 0.01607762669391042 -0.18930276208831176 
-0.34594571764175996 0.5001805276318052 0.15173778278275776 -0.9688118800756993 0.815107712668204 -0.6999223883442026 0.4177797585779117 0.4469696780860759 0.3900817573795719 0.05908215815828976 -0.38612068407311007 -0.357701961081814 -0.22361994643261648 -0.5876837479778273 -0.9507944294487215 -0.8761117241611286 0.2671714658561023 -0.4483482687772496 0.7539146832592066 -0.6984661434590985 
-0.7122875561507654 -0.8146508804754147 -0.20531125451255897 0.21686418289686588 0.3844877982581903 -0.5787711370809674 -0.46981752449648945 -0.3181370281740188 0.6777620117759315 0.06313061313846838 0.19172579802013767 0.5401856703597065 -0.5471651480642024 -0.4897130158269737 0.4755336048304521 -0.3802541169138109 0.3544425133521347 -0.38675200819664407 0.6729099388917104 0.693712826997446 
-0.475687965779799 -0.28520550989395793 -0.11814219344195526 -0.21611804271562524 0.6784611651713414 0.8130524042539534 -0.8045904895531902 0.09498171975160809 0.9750441583874555 -0.9977960641370448 -0.9546552246491089 -0.10518877102396368 -0.6313910235896288 -0.8917443050005167 -0.36196075577968645 -0.34563018970033205 0.9552526620954592 -0.2201988908558638 -0.1839575524798794 0.20739829063642493 
-0.9579102489406713 -0.2555490850075837 -0.44490636671744455 0.7034987258103844 0.737437169921752 -0.823116006161146 -0.928069481056893 0.1776808465804534 -0.5953026702150214 -0.2998976400095523 0.8762911031971252 0.0959834789300741 0.41074238049904027 0.791300508100244 0.11419465798003217 -0.5397549833026132 0.4257800770276634 0.8466047804820237 0.9451979354130514 -0.9348544984610375 
0.567423601474356 -0.6558163366916684 0.0779064232063668 0.05875567505800104 -0.7276952760174747 0.6199316831316077 0.09441500908186388 0.2324109476554102 0.0818873599163164 -0.7559213750375374 0.9164497310888828 0.23992379975216474 -0.09565365149860204 0.23900095850354613 0.6690015085447522 0.567654114035 0.6993818346357916 0.8134968498874596 0.6635233234190561 0.7042210329299714 
-0.9530940268129956 -0.5253252441776396 -0.16599551672701524 0.5900664403164051 0.5917826498578829 -0.14471591367630482 -0.572167418658412 -0.8156946620144208 0.0005636644611432342 -0.9894956845398498 0.85881947522384 0.7136800022764139 -0.3186692812893778 -0.04310141360344093 -0.528759198355821 -0.017016564703508895 -1.030152446465837 0.7022536298595733 -0.7119920046076867 -0.8124392814768773 
-0.9366911658695415 -0.44944641722839646 -0.9819940341706876 0.6138426021076582 -0.29498893204515647 -0.2515913182026977 0.026723670814528023 0.568083845571276 -0.6948068212777967 0.7785553340615015 0.6504586320630525 -0.9825484900155844 0.5213039981234429 -0.7356732440126528 0.5454065868707716 0.7580609576758819 0.5380152015776185 0.6921464020851926 0.15378277980991287 0.04477157819698372 
0.8881974288875268 0.2409905038934206 0.3558524539040833 0.31851141431635094 -0.9991934905658938 -0.5730948386845518 -0.746479271009436 -0.06092217990531547 0.5931013749682065 -0.8384305640888426 -0.923824484829717 -0.9377537142661474 0.5032065404332249 -0.2234765569780468 -0.5454418678440491 0.8917050313992326 0.21123450850902384 -0.6227832338143947 -0.1231493445091863 0.7376923161703519 
0.5484291631101718 0.9490619326802675 -0.295451189001129 0.7066043097229882 0.5820563330162798 -0.5632479557632931 0.5032514226565699 1.0328184346232623 -0.4764723816218803 0.005646027695008163 -0.21704649462615896 -0.8541373361264097 -0.5904893242795565 -0.48791195560119266 -0.6607727503970403 0.4296028781531642 0.6728633131807676 -0.38199141521583796 0.1554782978556453 -0.1548360775124198 
0.6117751424633672 0.41379315621603974 -0.45617304459308916 -0.7375958191302915 0.8275530427659924 -0.6074135094176303 -0.7646657485787549 -0.8198126490948635 -0.34137702935307773 -0.7733445143571588 -0.6409729588344849 -0.6799870518047157 -0.2486762579566825 -0.9456193723782167 1.0890190746681778 0.21869041985465873 -0.8772862287259606 0.4720672794687357 -0.7822843959748282 -0.5974721398094383 
-0.8984959686004349 0.43297932330514294 -0.17809554316562437 0.3017898396018252 0.5795411091343278 0.35065164378286984 0.6899772004343678 -0.8609587718220919 0.8041173063765937 -0.40379856348862386 -1.1308011883205293 -0.1452183651245692 -0.005534696947484054 0.5053924386200375 0.658607603140969 1.0536196527891348 -1.0365661072779961 -0.1109399258596982 -0.705964297664461 0.7389909734386827 
-0.03696247618357666 -0.32300384347111416 -0.01263439840054518 0.8914874592812875 0.7841357342292784 -0.8046167890256174 0.43059905281828487 -0.6740235420491405 -0.4148040908436742 -0.13290564315342507 -0.5433927527602138 -0.8229514333066408 0.6077375485068448 -0.2898843361690336 0.1931202599072094 0.10070120023994153 -0.3673869437527874 0.6079508890281667 0.8434322134743826 0.40305329217758856 
-0.3082557200912894 1.0143315709363538 -0.6865899460786833 -0.8366940000940608 -0.6658679759932467 -0.9431842681724464 0.7692432672009379 -0.023482088611405428 -0.15672880267824593 0.19363311580938067 0.25511923327132047 -0.8247150140127149 -0.17988067610989847 0.9652856796237839 -0.6514668227250403 0.8002784454007 0.7038713008400659 -0.7673950088522082 0.8087593203714407 0.7548440495237705 
-0.6798731849067609 -0.6194740043323567 -0.9868283697128168 0.41301787859514316 0.7675617230226622 -0.014409036213240776 0.8366059187696777 -0.44316998398667756 0.11805668779321524 0.7257415639438585 -0.07934679945094357 0.08947756939285817 -0.04623909141469987 0.10467800119608733 0.6905973719189529 -0.6930261063483535 -0.31300454656121895 0.35187151027489244 -0.17296536385175434 0.42694517160558687 
-0.14598213140715927 0.9270953982782485 -0.29445191632638934 0.2726363483514988 -0.44670500016765247 0.743818341699131 0.3613231431668154 -0.6140834585933821 -0.15455581604393104 0.4915572575304914 -1.0136105093360808 -0.77398351297754 -0.08321710193285646 -0.2658861759121813 0.5793131908245966 -0.39325766446876853 -0.24784767371807778 0.5953229501411323 -0.6728848080223135 0.2905790174157259 
0.13999753025015269 0.7868140624109531 0.4780596416873484 0.5206384611828463 -0.519047355016539 -0.19724995736959083 -0.12385272673573756 0.9189684131031091 0.7144834571559396 0.0006782616631978321 -0.6979951293806904 0.4727523254205723 -0.12461421688036858 0.310839729541092 -0.6889459866812155 0.07662817558680131 -0.6123273579877669 0.8529450224366536 -0.45500799634631633 -0.6551104022787286 
0.060779472133005094 -0.9763320583720657 -0.5808412859261586 0.5116442168986295 0.8885761294137087 -0.009084101878836882 -0.9529256060440076 0.07429548180770659 -0.4378897049828029 -1.000207622525756 0.726431723266344 -0.5042848756984785 -0.8843832028741119 -0.9398932978371055 1.0231400338949597 -0.5761664718196622 0.09017051649891818 -0.34736787233107885 0.8927195278479741 0.03669628181401642 
0.20259580166707708 -0.06927802996160502 -0.8544970414662156 -0.2882373175171764 -0.9015131720620527 0.3971603724526731 0.18926107907841558 0.11297764352250014 0.8579333155640267 0.40047332510366085 -0.1234338664625066 -0.8298182135762439 -0.09872779828473845 0.08183210802718736 -0.23696421875493606 0.42506598447710503 0.40863045494482525 -0.7732090532549465 -0.8889551502519476 -0.0581167240364643 
0.5672126045307658 0.5539838502043913 -0.22594622873813702 0.40993110202052696 -0.6094736289982049 0.39801471530654897 0.39628232758699206 0.6604670905713707 -0.9814277048731824 -0.18160527247013245 -0.9241545877437607 0.823070338852903 0.26487979025555963 0.7170119687063568 -0.06440932570508813 0.08031016867652074 -0.7910487598258231 0.6102870016897463 -0.35214388076594083 -0.07931212819707564 
-0.791789083059003 0.5021013796082966 0.6831976788039524 -0.881859515594772 -0.36400841207765144 -0.3478626107687909 0.5701963086787912 0.573501755011267 0.2516697472629901 0.15567040591514922 0.6828868691378961 -1.0244541941735383 0.8178984007870875 -0.9642635106283554 -0.27346105669412546 -0.9368968949333074 -0.9792015219188014 -0.5179601755199187 0.25028862201820845 0.6465611933947217 
-0.7379479082674463 0.5472218895453577 -0.21410349324249622 0.2728280155732581 0.009743397665399424 -0.34986691944430276 0.9176044224882685 0.5680239765244953 0.22222385757532725 -0.9643803473066302 0.2070230687906213 0.2741535508331218 -0.21255462058016525 0.8157459974305784 -0.43588252123480187 0.6591216184915776 -0.6500490072608358 -0.2633428756635811 -0.7420869714865854 0.6137236458835088 
-0.7245094145677254 0.821043739764829 -0.41323134011462664 -0.1989171238590693 -0.5337110859087472 -0.6582708170586209 -0.29047730189780496 -0.06139356162676048 0.4901089311750192 0.730784812254984 0.36796155799697133 0.22668453356736906 -0.1365156908587225 -0.2652684364804088 0.30631130668696194 0.7426218562511183 0.7900798872460406 -0.5550646438636583 0.034902970979774225 0.7989704685454615 
-0.5704913401102795 0.8362630987270974 0.09987831628313529 0.68897058718401 0.4142262879474123 0.2940835211984679 0.4673997302263172 0.5445086210336149 -0.31611484833769593 -0.11513990359816358 0.11097308672584702 -0.7571078472798732 -0.09503749440588793 0.6589259037586556 0.7965787583332402 -0.27770141411758703 -0.28154952237661096 0.09114883910582912 -0.1014118219384572 -0.3737956774238862 
-0.22615826772655395 0.9282645938247891 -0.3896044789862145 0.9065048894879496 0.46988165215007704 0.11311089376375238 -0.9513012214970231 0.7469438597762773 -0.04222468366211773 -0.961633165065866 0.4429175357269896 -0.024227807244422885 -0.7854878349244938 0.18458751479801033 1.002439842104153 -0.8399070482020685 0.6655917166115808 0.6058365741677787 -0.3579366032707873 -0.33558219830194796 
0.2827265291205741 0.21982887093075335 0.5055870312268382 -0.31296618111377517 -0.4807089439657134 0.8082347393004857 0.6852997425485945 -0.30032521425092296 0.20567276091271913 -0.9337884869555246 0.029341367457199816 0.6963487836143999 -0.13978775765925508 0.5387868797207306 0.4888151242124765 0.6173415309711306 -0.20114776656381986 0.7099340523620842 0.8956278202328933 0.6796616328007391 
0.39983990724639334 -0.042510450936856035 -0.9810096433892189 0.19903892126166475 0.3213404917041551 0.784743706659182 0.8990487534995018 -0.46067490879860695 0.8096871882612039 -0.20659329006793192 -0.05898165016749095 0.8892329432074356 -0.8545841150389228 0.899286572135283 0.7523067073023413 0.38434875524385886 -0.508442712559312 -0.775926633574318 -0.7725306896734366 -0.4280335290978866 
0.7781213141322004 -0.08612563777672559 0.4495927307929667 -0.05105749344281716 0.5026951381432107 0.7717687005301238 0.04187217718732256 -0.6791887348906852 0.3911765395478359 -1.0090442821727583 0.15099569277840713 0.2553910811431187 -0.7411512676475122 0.42662361391166026 0.4221925030028765 0.4992382255747298 0.4172035131911327 -0.7238823029721092 -0.06964274036645754 0.43381054034786315 
-0.6064446268148824 -0.2704556749651907 -0.4713031238461652 -0.7665435805033461 -0.1282167382899622 -0.06373199985564328 0.8724287626833472 0.13671772775564608 -0.1721453270327356 0.9310235427327104 0.5108251309197217 -0.14745784955507435 -0.7185829168927671 -0.2983486193473246 0.517555701351858 -0.031513344973220496 0.5129954744840133 -0.6102633911237628 0.334204780726592 0.4210892108188618 
0.957984061723174 0.873082567945594 0.2654079452596279 -0.06630368579523767 0.8370535020109965 0.8279568808162782 -0.5946327330868894 -0.04997382300272019 0.38109918904992557 0.06948225088875504 0.7602041861372892 -0.6595129917117584 -0.8398636773532869 -0.07747100197563703 0.4071709709045036 -0.7252715677265507 -0.5779774029438896 -0.9535591703586113 -0.974884122357089 0.29071258275960704 
0.8430975961593979 -0.19864000822400069 -0.2876529935464112 -0.4399186777205025 0.3320728857152411 -0.9893211068624687 0.8726143711728502 -0.6119730693946336 -0.29300615731900953 0.7573309471187609 0.3945727432162938 0.5183454446653416 0.15383811794467178 -0.5869331400491437 -0.10980557076700859 -0.5621734680547128 0.9045984766610168 -0.6686066011715727 0.022013813343691076 -0.049525378085946314 
0.7872806931645913 -0.9240158662668795 -0.9415463845590643 -0.23354478338675178 0.611483195513338 0.05380511236112301 0.14151179639771572 0.43216940247156344 -0.4792893356770839 -0.7968719650033996 0.08818188469977019 0.85181162662224 0.2563606343905759 -0.4166722013250586 -0.8625447078431657 -0.6491683974827882 -0.5694163752397422 -0.14744657558015747 0.3715542734942402 -0.6148263840601741 
-0.07954887110792878 0.16745235587917545 -0.8896234767929718 -0.7040242870364697 -0.8027097411523774 0.33680151041198697 -0.539617103733344 -0.8436275779859976 -0.7809111831194581 0.6600784172525096 -0.7832859077927573 -0.1666333418451775 0.9522671875746663 -0.2424970834545803 -0.535760960974572 -0.28979201619228734 0.8266018630103269 -0.5686433416961668 0.923487333670352 -0.8155862390094105 
-0.6183277360336389 0.03749777994386509 -0.7067677165002613 0.8261295304701092 0.6740965692686434 0.09031673746727342 0.42705158898013384 0.9163258014698128 -0.611569792268766 0.8236963987831456 0.31643699753175736 -0.7922241287275983 -0.7268911158230377 0.7162157272581907 0.23659769359635582 0.8805920948700601 0.5835195306745484 -0.5814094019687648 0.9953224619858788 -0.6844381657266251 
-0.9549293044726238 -0.1480037242851287 -0.6285928786586272 -0.6608135272940313 0.34096505649320863 0.9123825589473514 -0.8816222839787171 -0.13325446768931043 0.006960483504459321 -0.10834442771319373 0.12123482333382875 0.723695737749069 -0.517205518944195 0.022313977644608237 0.5197474327328814 0.8855708196537218 -0.6945384634851166 0.12672541696029008 -0.8426943146828725 -0.6303981468409965 
-0.7966495414792517 -0.8842272302764957 -0.3595520098970942 0.14005286385666818 0.7319839945518329 0.9857123534084856 0.18083902000428587 0.3457333151943725 0.2576036131924141 0.7451577247947724 0.8647534790250611 0.4970060754145055 -0.0626241533638295 0.8245340257502466 0.810854256505087 -0.4558815968212563 -0.07999061363894522 0.2447108053497496 0.8332573034815197 -0.016120272014789962 
-0.39894284553708315 -0.0035424717461581172 -0.03979829073235287 -0.36811984389506214 0.35497242230994835 -0.836792053309926 0.826127854034835 -0.01393816205338869 0.776700200481985 0.38866094348125935 0.5323517970218485 -0.2625585448152033 -0.8349854047849652 0.9502133088881337 -0.9105756271541148 -0.170218031483532 -0.09453154217341048 -0.08755862585221637 0.26691116943164483 0.07183446967651386 
-0.4812914922144875 -0.39821406191511816 -0.44554746745442825 0.39729299290628367 0.11529462656040752 -0.2055379320714431 0.7443723860679878 0.312907751409386 -0.7961635684238291 -0.6610980561087378 -0.12575945605826822 -0.13490653736289565 0.7458173828784965 0.5616797556827966 0.03623541350138111 -0.7632190799932662 -0.8168680866168212 -0.6338512911984009 -0.8974335381547307 -0.7688483001165614 
-0.3676338566912367 0.2910462841209793 0.1393001647445683 -0.8996367608024161 0.6914766920783492 0.007611364917095373 0.6826339347247852 0.8763318537700331 0.3700593008080314 -0.7418800759100415 0.30753816952192903 -0.773978915794636 0.31711705165337095 -0.20398867660489098 -0.736617061753138 -0.5983273906198957 -0.9536651695094851 0.6863108703382574 0.7473587585003372 0.2607253190510974 
0.48638752715733846 -0.5176748199279136 0.499621191623898 0.4115182008023435 -0.5889737428504317 -0.609569225577915 0.18986511019483457 0.11785231533084334 0.5512302951062641 0.6800319043406801 0.6306030418073115 0.031365712965321604 -0.39226380934545035 -0.04079478205212314 1.067450262670786 -0.16010223711905597 -0.14234185311039965 -0.8512982586414053 -0.09668117062091447 -0.3067902548554088 
-0.42430624714947657 -0.6501315532242412 0.6184186982471619 -0.3390387206740742 -1.0220912129142161 0.09008502655676641 0.8295335788024377 0.8660851023045584 0.5037142462141846 -0.8031333902793965 -0.6862507023020378 0.9247042081871867 0.6811021939044978 0.8234558265091204 -0.026536130678351484 0.1919224396474632 -0.9149721239588818 -0.09617370003534272 -0.4749663281012578 -0.282903158276389 
0.9785650534043404 0.45571567381482886 0.03997372467963516 -0.3830295791259788 -0.39937231596992373 -0.3309159286731629 0.3364749789138018 0.3993040250777009 0.7937155693249413 0.7366574965131557 -0.17386314623963375 -0.7913050176972296 0.25241996602949607 0.673400609283858 -0.5792382261283499 -0.06532858682095266 0.6493887744399024 0.41045804095178673 -0.6689410683651327 0.9273304742368293 
0.7960546989190169 -0.04687872800561903 0.11661989335854475 -0.42274629529271457 0.5967509010669042 0.4970034062653091 0.3751479819253274 0.9574139392621801 -0.08117467469917644 -1.0121879426250129 0.5743989395727838 0.1474304229317855 0.2079313856077445 -0.19541322522193985 -0.2801991253112817 0.06575303892733887 0.3702635305983577 -0.21108031287885887 -0.533407347260862 -0.6814148281068151 
0.3395377839267336 -0.14014767189906932 -0.1611168907415829 -0.5846902269030595 -0.8526803214520999 0.10430950737301448 -0.15694472054102523 0.19429760627907422 -0.03163625678964285 0.5969121225840485 -1.0734586591515571 0.8324018814930368 -0.7166605740249562 0.5634163164681896 0.9215824380533556 -0.27277337379386124 -0.24658664997505841 -0.18193398859445367 -0.5888585405176863 -0.5213410935015992 
-0.6862468692636833 -0.3983295496009769 -1.0168989363356973 -0.31191609385800706 0.23630221361861575 -0.08926320903441741 -0.3506321601074341 -0.437976058594943 -1.0079279536161303 -0.6917091970255814 -0.6713768984085193 0.05165692759236594 -0.9618514993044331 0.9076939055426685 -0.12408515496552755 -0.5950628726942369 0.28232045388251054 -0.5394682778758654 -0.10566699134595108 0.17894388858919924 
-0.8624534090756613 0.9340260024481547 0.8611965303599355 0.15930874268109804 0.9757766874034224 0.16561504307223132 -0.7934875083643119 0.9291411433752497 0.23972059981649926 -0.5880619174985694 0.3966266099910511 0.8765519791415601 -0.7862772609712351 -0.5148209242787335 -0.8052468278230723 -0.1575856853914161 -0.5727443806278364 0.6151228964840831 0.40008038750219 0.5220131212142161 
-0.963207501634018 0.7118645700240931 0.7644392193473485 -0.090513353029483 -0.5729651407168694 0.8840950918252265 0.9039810489013694 0.401956120597599 0.4439648085052413 0.6333092310797113 -0.3904458930842755 -0.5999517915576514 0.46538583161596814 -0.7169960221368521 0.17673077946818336 -0.374019809275508 -0.046878158649058914 -0.4727216667844822 -0.842855835720909 -0.05198228003604124 
0.8981443233171694 -0.2711474615384287 0.770450754981375 0.24593012833296227 -0.023747506718357732 0.4512892012777693 0.865864395557395 0.549940116305688 0.12911644155271895 -0.13171244498720838 -0.09852773605166106 0.1480751803462573 0.6316191810586559 -0.4293927298524278 0.7650474135747218 0.974662753814657 0.43909757326921955 -0.14464990396103822 -0.36048056563691094 0.05334229813490035 
-0.7752389026610429 0.6103741386312994 0.6814069781784584 0.21897443425035323 0.22339381361301394 0.5414598845334425 0.07779496483038091 -0.7797836399957159 0.917509306045433 -0.055793438630764094 0.6429914843900847 -0.09515197330595461 0.4204272996413002 -0.32658481515004945 0.6337526454703726 0.41460657269566314 0.3400623512206803 0.1551179812676551 0.4270182474015159 0.2556435130899519 
0.08489310674106351 0.9517645667994145 0.8258667879764316 -0.27384422018571764 -0.913139534688424 0.07334202070889036 -0.35372059031486686 0.8329484797169284 0.10199841212717077 -0.582955322145067 0.23894291344756988 0.937527296715461 -0.24408584012024537 0.4665365628045617 -0.6914429179720856 0.9442562174629153 -0.5898614593566639 -0.9591682810303398 0.19267287327251154 -0.3184504868294458 
-0.8518615312646357 0.7452431477794106 -0.26416509572747937 0.3679878087581408 0.5438904455780174 -0.20636301884837951 0.6774621717420758 -0.35682937313915497 -0.8150041053427005 -0.9221607508801136 0.14934087193140588 -0.13938352064374332 -0.8693941586870156 0.8178036644147294 0.7810451999258489 0.0007567095052716738 -0.8117674313294861 0.8695017704759261 -0.7951692969240303 -0.028586192283170508 
-0.08018164606255809 0.6250040549517512 0.8299222151614996 0.4177625204099078 0.6408448080414302 0.25384947021112736 0.8411961444738252 0.24700216467522693 0.9490476755638587 0.5210293003412653 -0.6729045053636528 -0.09590063335224118 -0.9238781791842505 -0.9546944971912892 0.16974946042375266 0.0064113761680624215 0.950406629546396 -0.04460795692027076 -0.09142975170073865 0.008704508357295332 
1.0050119211049204 0.18332173988227593 0.8846607403595097 -0.33129110093463043 0.1739199048838582 -0.03821332780877235 0.03664295291334602 0.12137154824832355 0.6731586807168864 0.7577078146677969 0.397647788496083 -0.9317721065804172 -0.90806706616834 -0.29926545496118234 -0.36847229953275124 -0.9926853333507012 0.9126864076755091 -0.30294303574942744 0.07494984993014912 -0.038948327345916335 
-0.22509421039402489 0.6572959199377766 -0.44303499415385506 -0.7787684029120289 -0.026845404574349818 0.4443179081899603 -0.11322892994036017 0.9680200150106864 0.6421589482792698 0.512371862562257 -0.5134676877371442 0.7265200769399797 0.36819535316686824 0.40236208414504554 0.5884141806936406 0.6658743523828261 0.3767186336226849 -0.05514850514160887 -0.3498514993344704 -0.2163055707179212 
0.734298994756878 -0.3628228518965987 -0.6755227342756613 0.7010900963702227 0.7866059410798707 0.9234812198903214 -0.7735360609826443 -0.06441775637970001 0.39252054964213623 -0.6474347355009247 -0.33494127927750683 0.2350071851669454 -0.18974273265776054 0.8522560155043961 -0.06815162095879782 -0.4116934335505875 0.30163238128753095 0.1798965290489947 -0.4986837279751867 0.8659188093427794 
-0.619153351590263 -0.32376363638565153 0.22780348802215347 0.43251842347541036 -0.9270773365137257 -0.9939940491734502 0.345631484601515 -0.43665738227716117 0.9206342447806704 0.4219012860366748 -0.5803299896911307 0.6400790348859385 -0.39183448953519895 -0.42454681501775543 -0.013585930257910191 -0.5913017509388419 -0.36850665546668204 0.5340411365679697 -0.5637034186079926 0.32533460767784206 
0.21085683602985256 0.06098675521391216 -1.0118005279454658 0.00396674737020624 0.0825809166697884 0.39319389593606774 0.280792806199821 -0.8260498253685634 0.6146447094990506 0.22829807409151395 -0.7154526337991614 -0.4305037420933364 0.4415947869260607 -0.0828013650858166 -0.09063039398461552 0.3964242963917405 0.11468855287264726 0.7764397447661311 0.700686392836053 -0.4157975450001897 
0.2962624839721577 0.5097158386411247 0.2639675309070386 0.22566241729165198 0.34461908444466477 -0.7017014459732515 -0.4551277496512988 -0.008656623519203557 0.4327550144335956 -0.1586731745279197 -0.5321956336465044 -0.9810674934611402 -0.5848515778599569 -0.7474854860018864 0.6558895642412675 -0.5553441513987234 -0.18781429444606876 0.37373169613302093 -0.849429937940918 0.07885537655570181 
0.5394516731016801 0.27242628662492924 -0.18834575226886502 -0.4224702007840647 0.4778080814275005 0.7080939381854575 -0.5104315424139767 -0.1245092996766524 -0.5328184565479261 -0.5917191004655336 -0.8227786004881119 -0.026600696855510572 0.5224048259499401 0.7146729263541102 -0.5765043718066915 0.3886232982508654 -0.591265711992057 -0.676259914999195 0.4940578778198388 0.971471127723548 
0.5470257381493087 -0.7534157748604566 0.06943082345390339 0.09630332016686524 0.4710674251695356 -0.2639898445491224 -0.24121614705713507 -0.9585858801548289 0.38795298188314586 -0.9414743543009089 -0.9508526954956085 -0.25689796949788524 0.9733130758479194 -0.37002565876510246 -0.6657817092316801 -0.5834924938865055 -0.5753887658968665 -0.6052874047624514 -0.5797977909615666 0.6899906175692 
0.9923155845233449 -0.09910720275061159 0.7057554655575242 0.4740288278537542 -0.11435094155872487 1.038224968497814 -0.6660600320304922 -0.33046924349046725 -0.09885989766686255 -0.33800055681362984 0.7520252054984412 -0.05807394703821695 0.7649161949633391 -0.49550332549976395 0.6998599256461742 -0.6511006379291782 -0.656477774955924 0.8912726241444544 0.16241088422293723 -0.27908274739792316 
-0.46955307608735725 0.5527100189571332 0.32438259364006194 0.38834509997445493 0.9296039504437406 0.2124390044679238 -0.6409443898274362 0.8835101814361283 0.16117752575614683 0.7204993409253037 -0.11326270583475949 0.7485101999835028 0.7981490324896353 -0.9999616744124532 -0.6909494869941115 0.07665498863947988 0.5186479129862399 0.9789405104298576 0.27244515202073005 -0.5304314937455575 
0.05477299298952118 -0.36652266288058344 0.19011475894174326 0.885721163145413 -0.7184335073352238 -0.9189038607524296 0.2651549655755239 -0.7503914062684692 0.5478803571211214 0.6780111084412136 -0.15440846316887408 0.7909311633633557 0.9271131809455225 0.8558145465722848 -1.0115201064591441 -0.8542454738227089 0.1800986824661422 -0.9674630453723101 0.6626584303300762 -0.7689802781878766 
0.9986724379579026 -0.8071259744405773 0.4671553596570592 -0.06381283199509724 0.2497671917609898 -0.22170404763371834 0.4640179930282988 0.550331520375877 -0.050913731285752974 -0.7935249357743458 -0.8739748086207269 0.90640414562916 0.9732426579125917 -0.523832856251424 -0.6504346182908967 -0.09081583577441855 0.5364984683260153 0.012954321553107618 -0.3113538756951516 0.9371639163416078 
-0.3022815351390717 -0.0687598275770213 -0.9608884118537564 0.13146712217544243 0.9272470052542607 -0.43982805892381 0.5567752936566049 -0.9051501756470581 -0.6365812088426206 0.24405599081080254 0.5741276650971174 -0.21276698300481894 0.37574299098317276 -0.847944709428938 0.25399132993052076 0.19709479412757716 0.4385156526551125 -0.627754185446513 -0.5086714402912264 0.9434811823847794 
0.3521459837371711 -0.21769889872319007 0.3882166859091572 0.0754622142516886 -0.7746642524278862 0.07054810261069226 -0.19416710999411105 -0.8959322192751878 -0.8849958608065325 0.6756865134350111 0.5527030472117815 0.9181908642253023 -0.29077773447809147 0.09353663643727587 -0.32917625708816567 0.9379723303241251 0.5194152291451483 -0.2437425249369909 0.5970900189669917 -0.5069658166470045 
-0.4795979476007808 -0.2732700599150561 -0.5696226920766807 -0.014744288431906399 0.07438976821036829 -0.7301215722105151 -0.540099973202512 -0.3600371977142708 -0.5963984787621992 0.5077679944329845 -0.2715048782389105 0.04280638933946341 -0.706821576552038 -0.022441854583520285 0.43007065971381064 0.8874779946360217 0.9789272055613888 -0.034936131021219737 -0.7405497708738517 0.7952713521560586 
-0.8774328877896863 0.46812558056890546 -0.1412320878944127 0.1582208147087054 -0.109558684605516 -0.03078231989676246 0.19419311479173376 0.24524224830767716 -0.9773097340825944 -0.5900629291498523 -0.38450964143911226 -0.18060190181842833 -0.12030032256419293 -0.6202450919621492 0.3323919623995828 0.7062604923621941 0.15040495028231696 0.958153922088281 0.49215975393385286 0.5297164053847354 
0.7659523952908194 0.679174803846081 0.3187205919987485 -0.27201054759781673 -0.9849330968798805 -0.6967774176181075 -0.7295061645196484 -0.3083591912000365 -0.5406837298780257 0.04576421192557002 -0.013249938992121412 -0.2878493771715089 0.9081328770907936 0.6982664324570776 0.6863517173570032 0.6827209385869352 0.34610945731183407 -0.8769963165000213 0.1664850035526396 -0.8925363643275568 
-0.6224264133901409 -0.07345438073365144 0.3585620803830858 0.5047826174807774 0.7451059793082075 -0.54130412800593 -0.7069653174449153 -0.1640334627556296 0.3463794901097887 0.5627016278615865 -0.23720745922147846 -0.4875335438174579 0.3482456220767876 -0.4631245147720113 -0.5877956999558195 -0.5420874566386771 0.8168240294461571 0.1360486323107734 0.1437198624448134 -0.8649629618670196 
-0.3162121980494657 0.405837887918515 0.7924251743831707 0.39005122678052073 0.8089473192057305 0.10529215158607576 0.20169127758144142 0.566036606467481 -1.0024478347112087 -0.5189015457436195 0.6894879888589485 -0.3215103192941742 0.5759833160016855 -0.888156614412272 0.8245627052882099 0.5854823528175384 -0.26105929607667056 0.4882313762712885 -0.8881182959812657 0.46215198256721396 
-0.010019939758539582 -0.371763163410328 -0.40278482674357835 0.7931931505423615 0.6978386150678343 0.36787481863050575 -0.2767197466991677 0.6753387165193141 -0.797099719003306 0.9019057384485991 0.5670084367618673 0.2826010088080117 -0.47339655400372366 -0.8420386658864158 -0.37239451394883843 0.6206657462593872 -0.29079842361759073 -0.1742763658507865 0.3150681921644271 -0.09031950462130602 
0.3099732614945893 0.8059119725886748 0.6165140721276411 0.0691322382457349 -0.188950920839247 -0.3469783805276733 -0.9074412602191735 -0.6175183650245023 -0.3420202920102282 -0.7102788037450088 -0.19138718332681126 0.4163271368941326 -0.13978863351818124 0.19160364260471763 0.4042698850969223 -0.16923982224196257 -0.5984196884417847 0.08169633697400844 0.45519590134269583 0.3895763460665429 
-0.5194334076122642 0.49257450574171996 0.19713674394724218 0.21175584343861462 -0.3622718533123772 -0.7881841129408858 0.5226544664385041 -0.5354650332974238 0.4409029109410575 -0.5893538358410358 -0.06028477822725175 -0.33072064920640754 0.403817195429816 0.7492574089934517 -0.649288477510505 -0.7476625965808847 0.5148803842282578 0.8812648841360039 -0.5494150506201986 0.21826260931725222 
-0.7064121823198689 0.4417819452152075 -0.37212024204826843 -0.6198174781898063 0.24327413336072776 0.22333293779227692 -0.9315846608382665 -0.058734730950928134 -0.9591176362105416 -0.20361795515205636 0.03504881711055476 0.5712617438162507 0.05254669128790766 -0.2259051796481431 0.0284521502013293 1.0568833438845848 -0.25608181082667836 -0.8486653115457822 0.21835163178243294 -0.11459641072505021 
-0.4970839041000966 -0.5556073388611835 -0.8745186283741776 -0.7476435857774124 0.41799696064925146 -0.24655992380104344 -0.5952348564500447 0.4510476877372285 -0.5275602278451307 -0.9228355841292714 -0.42509709902710713 -0.11977285619211794 -0.4481166752408764 -0.673957807529436 0.40333304114171503 0.33106594283866203 0.6940898087764553 0.30324137074113394 -0.71267300213638 -0.4467195541148996 
0.8950641862115334 0.2343239344632115 -0.011224870300941762 0.4038962920957964 0.19282529745538352 0.3354394933715897 0.6900150970805702 1.0162609997364016 0.34827388348078464 -0.3399019435392402 -0.1799731496589591 -0.6975107882803616 -0.7685409936142563 0.17188719200421493 0.5924159451490387 0.30210977514848214 -0.2010457610856793 -0.005708681931279635 -0.4815026533533133 0.37991061254351666 
-0.12956433880676524 -0.34968592212112365 0.22395705708083252 0.2986412808829594 -0.2703074175988851 0.5188737134141531 0.39988951012498175 1.0147531832552599 0.8416073602184131 -0.8845101088133254 -0.8541038036675289 -0.5008703052575154 -0.9566832774200537 0.26172572490692403 -0.056743524472941835 0.26891730984056844 -0.9561104925665148 0.5403185629826075 -0.7356614118253932 -0.6578420970379687 
-0.5869731515256312 0.08621785307462285 -0.30213516796017453 0.6959918119733352 0.9971157879069268 -0.17898944800122604 0.3876728488105271 -0.06413382514256824 0.6127952430815828 -0.1277725743307513 -0.8076946741733573 0.2973404384528068 0.23252998919887782 0.614546498047725 -0.16162130747232858 0.44734419843354767 -0.683506082967622 -0.06856217420887373 0.7388744729838082 -0.08474783022694841 
-0.07144742714531646 -0.3510089927167305 -0.846282108428751 -0.07923340391872842 -0.7103057842079981 0.4333476730591054 0.17541718378048152 0.5190414722993503 0.5319413340126105 0.9218172553119828 0.5015217127093895 -0.3997327280484752 0.4957262412751241 -0.18064634484776382 0.8986747438540204 0.2559105936960495 0.5457511981908124 -0.2535827505660248 -0.2302466562140217 -0.337201236716482 
0.38571996634926836 0.6107671884256967 -0.3886402394780386 0.6498917620269128 -0.259136082020236 -0.6426005721445955 -0.4087488973279686 0.1729220493602856 0.08045687662271137 -0.7717829655730757 0.3148066264290033 -0.46313274409282285 -0.9311507373668162 0.8533849337739178 -0.4835429042383362 0.6498127188108228 -0.9355641513123812 -0.06322735943196886 -0.0769886531674719 -0.3731763681985115 
-0.8261965494123313 0.3251184622189757 0.9080414393484566 0.44080298155829023 -0.15159560104153286 -0.017118738676800874 -0.09663991831643504 -0.07842617167156805 0.27262367233860607 0.9291734178217097 -0.29378244861128056 -0.19251951205639856 -0.17734071790871442 0.3062292324005315 -0.3335974004099497 -0.10818503291002404 -0.05760964273890651 -0.8333631434833383 0.37641564262220195 0.8199576752908179 
0.6757707808426323 -0.19300304244452995 0.2174425806561631 0.32095547038579075 -0.8830417550299379 0.9087273506940913 0.7823741025184785 0.6298623555243419 -0.0193967761085375 -0.6183891035478685 0.7978558872795247 0.3724615799559168 -0.393583232511989 -0.17811893590364627 -0.1332126701430581 -0.8818516590087873 -0.6091458942874874 0.8724352971970578 -0.247332268092212 0.908298829136014 
0.49661304224036784 -0.8813036131158277 -0.6761533514293897 0.6262625277718026 0.07002932660142008 0.82411085183677 0.196297529692634 0.2605772568470987 0.5867795276406422 -0.4987757354469922 -0.31995855199640627 0.8858152324986951 -0.8484403346096132 0.5669886402217461 0.6810002110941982 -0.3356424449983788 0.8039303038959981 -0.06671192756851047 0.20540401264594704 -0.645898927492931 
0.8599217252888216 0.7309793589154098 0.7212175286657209 -0.7463476159497587 -0.29323482931138223 -0.31535630504374984 0.6135573691279276 -0.0410171883423087 -0.819617445015573 -0.07416846033683648 -0.7340275695799211 -0.5024133377823368 -0.5851560660355831 -0.397771114205229 0.6647368494065669 -0.27828899463837214 0.9520618675926427 0.5715857012327532 0.45233713315191426 0.9790530546694395 
1.031398186310563 0.8800477764649302 0.782781398122522 0.5490456373232698 -0.6944321061986215 0.3457105465202943 -0.06919512364241956 0.6788080918008701 0.687204493076279 -0.35930577734201635 -0.8018922793308451 -0.7096916296651055 0.1351594900875886 -0.052061250629047574 0.6518102168766167 -0.537471874782185 1.0225321178986269 -0.8984364621550959 0.5457315498591072 -0.5196074655343864 
-0.1052693688660783 -0.41738792704259264 0.281017227867066 0.5833325230986278 0.6019245376636747 -0.8117974980325027 -0.2102541334333426 0.8144579669359198 -0.14921200835018014 -0.13961542984945777 0.23717056076539253 -0.8175257299889275 -0.2588999664442408 -0.18812900055015203 0.2684003182971721 -0.7067045348457329 -0.3977833247738219 0.35703199233998567 0.023279064683608675 0.47236131670682263 
-0.3240449092516412 -0.5216475537678106 -0.023923092326710874 -0.02188920344189943 -1.0086529327148084 -0.45271067573134677 0.3407708686702476 -0.6530651035236451 0.25209339347624216 -0.8171669279527095 -0.8241902640284915 0.2592098489072055 -0.8834883175573609 -0.6314570476716642 -0.8884241941069201 0.26629820194728954 0.7648007667534585 0.20420253363225413 -0.1023151815353121 0.6087569775001738 
-0.511134152703229 -0.9290821722984438 0.7584579958096784 -0.1347905924690491 0.13437647377881462 -0.23842102374105456 -0.7974760267282 -0.7158045006202849 0.2557386195459551 0.6299108892158437 -0.6089796094438347 -0.7879559024561158 -0.4491480488522703 -0.6467159150510747 -0.21895404004735083 -0.9132862092059153 -0.422042907831419 -0.48987351003037843 0.035664782665682106 0.20398667601625262 
0.9290228886642135 0.13244181615522255 0.05437247194019964 -0.37007769589974066 0.6388920899125601 -0.3098262232281734 0.4176154049357287 0.3036654093222362 0.9404317088566597 0.5574155850770469 0.23162777144876293 0.7473267886452168 -0.709359634335672 0.4251672817464464 0.9482582653565289 -0.3552641736911306 0.7147152805198175 0.5035052451844569 -0.9590391697500947 -0.5909541563777331 
0.293565506502873 0.5900212109340695 -0.14524714517507004 -0.6540202585433113 0.2933784831405254 0.001743009008785353 0.47056477273814695 0.42299280801392913 -0.040770883253768944 -0.4259769281906023 0.6308811248364851 -0.8372611880300582 0.6195584895171055 -0.9417408159084314 -0.36898823924561197 0.03958836254453344 -0.789981581280566 0.6110426662626806 0.20931692189416604 -0.038763993984001446 
-0.38829599473210114 -0.5804171311520782 0.9787620889152528 -0.9144661049190262 -0.8306375847504991 0.9299573468819483 -0.9584417302884919 -0.5240025969592674 0.46974745807971696 0.2984062711447881 0.23777496842675183 -0.05295068926941388 0.5665795777308952 0.1701308281309625 0.8181724830543881 0.47358293773005616 0.8910082507773481 -0.28221150024873604 -0.2827963815057736 0.7808366679794311 
0.25692918145504595 0.5421043561458498 0.32789965129518833 -0.4474913309502924 0.9958197350996024 -0.5760264136784198 -0.19101014600125396 0.8570612289628138 0.07444331085393409 -0.8567259524267937 0.6607506787007832 -0.4310146710018318 -0.007315379813158262 0.07862934970478042 0.9874474110796336 -0.44598483263454797 -0.531478895488946 0.16129788139305243 -0.7604774566747243 0.635342509440401 
-0.16006642862428122 -0.17352948462313217 -0.35620718066807994 -0.6234269982972376 -0.42139959497305207 -0.31561176196087204 -0.41795030386961807 0.2524913017891056 0.4755927077810608 0.16973985387854074 -0.12972185831337746 -0.4921192166125859 0.6380257263832829 -0.8467120041508871 0.4724279930176785 -0.3351694879227024 1.002590859958804 -0.6828710288369924 -0.9803135430627579 -0.6742039674025438 
0.2987252252979795 0.10671861558857572 0.6576837087927877 -0.8792715743370393 -0.5187888747098783 0.4199235322458387 0.5369431342584939 0.6687171896778911 -0.9204847099338398 -0.6143856761479191 -0.6894017006348794 -0.3640820984919895 -0.5561165485791367 0.1621852648178321 -0.3433745964730787 -0.8130361728946818 0.35747764925911785 0.32178353133079307 -0.04038365760621723 -0.5059364559277304 
-0.8977962597943804 0.3501467788624916 -0.8840153242801869 0.7604027044442571 0.6808362613106443 0.31968595695181085 0.5959044511869813 -0.8883215593312844 0.07215183033701339 0.3377493749067782 -0.39275753286108245 0.06540332665353683 0.3975808793380377 -0.5600126946927024 -0.9892407841726925 0.5737153689866583 0.933008308997852 0.10393347468753285 0.22905696972195858 -0.04905250772864346 
-0.9290544411108033 0.9727546611749389 -0.5106754752648806 -0.07057882545260483 0.28056187031238666 -0.6945500447114767 -0.7373418323037293 0.14440877401652732 -0.9746931362007826 0.08183408626978303 -0.3850134681880133 0.9852577980022285 0.26414659841058113 0.5339620316415824 0.7781656717049772 -0.49088136003806604 -0.7333585617865798 0.7379801605179301 -0.48298655829824516 0.6659794570302259 
0.10118807377727683 -0.08383067903536978 0.10879900053184821 -0.928542964723813 -0.9507390989928526 -0.5517133260601741 0.905715281315978 -0.8777976033906171 0.6589234092172243 0.2660507883828516 -0.27212310773447596 -0.4364687575616379 0.9912241326876465 0.5038377767795484 -0.4028289144383915 -0.41034625529874696 0.6655369266518211 0.40865447935589816 -0.5594133253479521 -0.8882623170794991 
-0.06824766361544056 0.2525424300068155 -0.6395109897333495 0.11065156267427712 0.8094625259525403 0.902710251267289 0.41676391578134353 -0.09867200195482177 0.04803270830519658 0.2677911892209505 0.6982174239196438 0.710709301462298 -0.03259715268575408 -0.3564503567098905 0.3699631730173052 -0.029707689895117153 -0.6009952103790336 -0.4310169403032226 -0.9839663320873522 -0.5850441763193704 
-0.10103279841434416 0.8027187130186432 0.25959690883856884 0.3830328811230954 0.5453506248799551 -0.5102207732169073 -0.6746701234829633 -0.4459948079421942 -0.04119723843873586 0.15716790286615198 -0.6180628219329626 0.6277775029736116 0.2347190479880012 -0.8997639866525482 0.06075859266629527 0.5130108247105148 -0.011581024809284456 -0.0075756224605887336 0.353010314356053 -0.47554772491620206 
-0.12233117296786691 -0.17146857080738187 -0.7392306943518002 0.6449334186961533 -0.2580824579631018 -0.35334356485512813 -0.41319848267950343 -0.6695313096146602 -0.3433096234717598 -0.3960236156140287 -0.2582028246150681 -0.13385476961451642 0.276983250573892 0.45434285195948837 -0.6406993958996727 -0.3544730989660836 -0.18694220454427915 -0.33271623998959715 -0.4843915127602922 0.1353448228412944 
-0.5802253052614944 -0.7367908961219923 0.6545716051998862 0.7947322553520972 0.6314122266703349 -0.6089931174632444 0.9631578799327393 0.149532569188497 -0.7109411615417285 0.274341381648925 -0.537427511118914 -0.8115075817675952 -0.549720360953345 0.013730044647685813 -0.2092413009035413 -0.47341378826414526 -0.631234684476233 -0.837280389250597 0.6859909592150077 -0.62707063823264 
0.4849065847458127 -0.1310752966021343 0.023440743787809186 -0.6360991126629283 0.8507098597390441 0.19368934436172713 -0.25783532470927106 0.3686342049238272 -0.23949650251176768 0.7685564899458348 -0.15263845406836887 0.8195164680548849 0.13609773608839942 0.711868854328168 -0.4699214356588642 -0.07702192841426855 -0.9342750124189054 0.48743733939054845 -0.9627845360017027 0.4223506053563929 
-0.568804686080119 0.6145062504214904 0.7151787203074879 -0.9509640226472863 -0.8625209485141601 0.7785826612013471 0.5117071112966112 0.359964472508011 -0.8247245040465974 -0.6166967050520654 0.3682630000947622 0.41688387272276034 -0.872115545182325 -0.4689804687605885 0.6516788757015648 0.5005250058488236 0.7825297658951076 -0.2566777601698785 0.7806083263708762 0.9377755015744788 
0.9631034044505116 0.1972616060853196 -0.0025675344777183664 -0.6982601624519998 -0.5897657388450703 -0.34285151900827343 -0.2972759530362619 -0.20238607406715736 -0.1394609153850385 -0.31878809480089726 -0.006296624409491038 0.2674232320871947 -0.3640433594101975 0.16106881933441125 -0.6069526585607329 -0.31612007915694307 0.9952811240394259 0.33117404668562556 0.5021601931870957 -0.8041872674558019 
0.9767784936577694 0.9370830369804797 -1.0495959338998222 0.6372368783017723 -0.9247418348400831 -0.21419670304510646 0.7840280076052079 -0.717944353284858 -0.80058141445972 -0.4000803955520692 0.43245801022860675 0.6924331975766468 -0.23889556034707338 1.0973723474888806 1.011847686194379 -0.6299560599006998 -0.5773121816803848 0.7804966560571492 -0.8379846922391374 0.5462429980021084 
-0.5056126612317543 0.03244789345638748 -1.1854832782105724 0.597681381029579 -0.3869393874341199 -0.400336479456697 -0.5690238842993466 -0.7485185412352513 0.983147409798628 0.5005511928833775 0.6137013304184784 0.02898526395831186 -0.7087066031393295 -0.671990847400265 0.27453083549145263 1.0006187696429913 -0.731988268738835 -0.22262940112434304 -0.29221793484160785 0.5361281784489799 
-1.0668825799400818 0.9805708249523416 -0.4903398610459513 -0.03530833461310941 -0.6071575646996898 0.2878970168068018 -0.6778658203270834 -0.4350234021775077 -0.7699297639524582 0.2726266000512844 -0.9773078551613807 0.21693166364415079 0.734969431874471 0.727845254642793 -0.18741037111991624 -0.6256877355496906 0.9458069268028465 -0.6466353883809458 -0.6224596353629378 -0.7378041681164668 
0.4880936889146471 -0.6418210561730583 0.6316239991267658 0.40027184378581604 0.26142726817413875 0.41879938661288213 0.4525531104161356 0.007121995593336164 0.8315614609342776 -0.15016306037175103 0.75191149062141 -0.001330707214742244 0.6573091745623306 -0.3276784249140087 -0.29763296892165086 -0.10678773702318552 1.0171958251634754 0.8844653724473993 0.29755867002843417 0.4088690500883072 
-1.136079238437915 -0.06069347650801443 0.7672004535474704 -0.7628443530412605 -0.8087769062001099 -0.28572620542996635 0.7811343823911225 0.3223680222523799 0.8841253260961849 -0.03173195314968388 0.7200690497436444 -0.4663705349892198 0.7044738500032718 -0.8166626327895944 -0.5620109574404085 -0.5465289292202345 -0.6119336927255565 0.47578977526811594 -0.2399602503874896 0.8069362486406634 
0.45953741525034664 -0.4170860774644319 -0.5694507962667736 0.15715399475876615 -0.6962388721139742 -0.3396713124506039 -0.2852076606631734 -0.4978838014929202 0.032647085293395176 0.4659102671476652 -0.2815271810115081 -0.6353183147260898 0.1385527451955067 0.21125594603672074 -0.10300213739403594 0.6552264629031758 -0.22766987125852525 0.405899203399636 0.16608676516955992 -0.017612409959568563 
0.10894115979348856 0.15995338635295753 0.4508862136690252 -0.9199469968302725 0.19915727968793048 0.4181753152248633 -0.6349732078459058 0.40720294868827156 0.7456366655388025 0.8098690333305213 -0.563549375612655 -0.28632515327780755 0.08013133318613296 -0.7331211206360976 -0.11923835756873437 -0.4184720984149165 -0.8100837000967787 -0.19169581663869012 0.6803652709832584 -0.05403128397838249 
-0.7896082539875033 0.08251523581703483 0.7070112946098763 0.4481441287218543 0.5412472823890699 0.2574759430560483 -0.9277405933412555 0.0381959714141641 -0.8155382090477203 -0.4927093868110535 0.29749115091509676 -0.16675066566594673 0.04812832024962566 0.0901577212502672 0.45937352882475035 0.33679676301057687 0.23722185801112206 -0.3699183374077429 0.993593741176306 -0.24290535788273385 
-0.17665781761776134 0.554551134135138 -0.1076513263254123 -0.6602327843905877 -0.757382494691155 0.31397951831456683 -0.5879916740407964 0.2480652837349308 -0.5053036090054478 0.9264665597564145 -0.8173649400927706 -0.790121404923157 0.5948230996626996 0.6480021786351915 -0.19504198647028329 0.7531031274477455 -0.34769014408859444 0.005556053789442542 0.4250608173816729 -0.901677634006046 
-0.8738790034529773 0.8018464533107894 0.4382761930015215 0.6744492665655454 0.8407617945319316 -0.623244536109385 0.23708405142248148 -0.8125145072524333 0.4744559121450502 -0.4095519732453574 0.7507647122026317 -0.36439834730702747 -0.10962952361752819 -0.8863814628566977 -0.13268700071730002 -0.1603826352021487 -0.3631621768493112 -0.008854344678719955 -0.8908976052364739 0.9280951237856606 
-0.6761002637585248 -0.607519115255706 0.9341921988034206 0.822318564236855 0.43079622584035115 -0.7659143099940414 0.1735756586883471 -0.22451895670092242 0.42647246842984216 -0.3461573300357678 -0.40258288753340665 0.3865704076457883 0.038258258242209665 0.5887207990110921 0.34070461427414167 0.4489069347306264 0.4391126199701715 -0.46831941566438534 -0.7466825747441093 -0.5324004570129147 
0.8182082968363633 0.33827864234469895 -0.16668487383294456 -0.5345681839743104 -0.703111556026603 0.8978830604801418 -0.7964367480807653 -0.5564012244855997 -0.5040527049099655 -0.3039418990091826 0.5905953167505289 0.10538806260575434 -1.114104627804852 0.8304416323567133 1.036511393252417 0.6607062566952859 0.6875966455579222 0.5672965473665547 -0.7814419178302624 0.6659998160367554 
0.23867980031495273 -0.5305243192358736 -0.3584145608415508 -0.7121190577264525 -0.07561343826199902 -0.5936287739018532 -0.8110747170946143 -0.911258180934154 -0.31915143229977117 -0.32895068784563464 0.03175599739461635 -0.6391285848403647 0.10976244627106231 -0.23990391618374068 -0.27949847392911953 0.7919463564163173 -0.7677548743918163 0.004835436708416145 0.6488654020687775 1.093946844784858 
-0.2238099045137869 0.309217503907744 -0.7593527328312772 -0.047074475644913405 -0.41872916549383327 -0.0036171274441343716 -0.6880476559694598 -0.4666658070874097 0.1455731724238065 -0.9096479292526742 0.7939480026453785 0.7492803087832588 -0.685943557582395 -0.19158117050302378 0.4016704670654422 0.5717415503987953 -0.4170102193173918 -0.20990699822869666 0.8159813043969074 0.8815185579886672 
0.48458785088221223 0.5010332283379213 -0.8148746220900375 -0.056421506793147114 0.1803862897496314 -0.5182219622973309 -0.0346620078858001 -0.6859921476935478 0.5940648351028188 0.2807732455787628 -0.16735028636268026 -0.9465453250246857 -0.6019831834780717 0.5316438870177793 0.39117029777435275 -0.31770134372635356 -0.7221636725258296 0.28357052291083773 -0.680931886630473 0.5324039945476828 
1.0008736368547442 -0.6746170754731372 -0.7425265226280254 0.08252588814115099 0.4995619192713785 -0.4944371798374537 0.7900191865399723 -0.9929793618066359 0.6631606760280954 0.3514812052307393 0.5682019540733876 0.7084546900737406 -0.45042511350392 -0.5907940089745944 -0.19105440369946688 -0.7300057635390772 0.3411162710539503 -0.5134250729890049 -0.2356259079230381 0.9025281990939078 
0.2519986475379019 -0.5288234758371682 -0.5468470352543865 0.9447130713019268 -0.653026405507297 0.029775931601293337 0.4141170617332679 0.19867600276351707 0.2044790157093387 0.9205772759840638 0.08505248837147063 -0.8695795137287478 0.4048687043312727 -0.2549572451086973 0.49765606658439365 0.16960627981885723 -0.4318858588156559 0.43807492989326663 0.9044612334110632 -0.62066138572182 
0.7792668367454114 -0.6026762029183721 0.8317529875724833 0.6749663908700679 -0.7260800696282746 0.633414139751206 0.5087043369228702 0.43206068615492554 0.8874083860318984 -0.45254562950073723 -0.4584699688764921 0.0923852542621634 -0.36991869834890834 -0.8180145349339276 -0.3382287506459531 -0.8352518776563624 -0.04797216535848599 0.3734114561230852 0.4896642065697272 0.5549249530648762 
0.9717276966866902 -0.015006408631643625 0.9846262626990604 -0.4518052571912897 -0.5575382059682319 -0.13580269750965104 0.059024222534390186 0.6725091911903535 0.7712679811170798 0.5964333506732005 0.2794321567930038 0.7087929425824556 0.12432141671111559 -0.6253104106397869 -0.5045089122028256 0.16222733707297876 0.2211877601689099 0.018566571025748498 -0.7142077124631402 -0.8898548622235161 
