0.20993446014731074 0.781306973606399 1.7383770888925085 0.5548115348538739 0.49931307277668996 0.30417378506839704 1.5951046666495041 1.2048045983257993 0.8589445127110774 -0.40053157488127156 
-0.3682566803243131 -0.7685096783401523 0.012586121119683949 0.5837511068244287 -1.1141809082170917 -1.181331664242933 -0.8255877936115976 0.5592352360173085 0.2552740351041069 -0.4782634302467815 
-1.119564395061584 -1.8496356865159511 0.19288339919331807 -0.1424053192096421 -0.6349918948605474 -0.2555584163405176 -1.5161263690578686 -0.1209916831189654 -0.8248773789571738 -0.5118767863357021 
-0.4590133370133958 0.634293173634267 -0.47015367223164706 -0.6441242277008876 0.6673735299552171 -0.4657212966450042 -0.06506271576984336 0.826940734386945 -1.6809077173251155 -0.34446772902071376 
-1.0511215538524536 0.2807635011006266 -0.21787307011969131 0.15676869822141262 -0.4868122977775998 -0.6489447868374121 0.5010313260266324 -0.18636955118918214 0.6871022411625142 -0.5810470418740502 
1.0026058361446444 -0.8550475544374784 0.3974719088419686 -0.7898650100540271 0.10949593173897601 -0.2588181798681966 -0.5247756443465671 0.14356604535965195 -0.5251210338452477 -0.7611767596975632 
-0.3141732179115783 0.43388840334504414 -0.3178534656986682 -0.788189209425789 0.2318443114535102 -0.15831711266222437 -0.6068017859273044 0.28765908063916085 -0.6983982939107515 -0.11955294873552852 
0.3110961879428764 -0.5704875997656992 -1.3982786911238214 0.9231395233645995 -0.5939803653027671 -0.15270180392365895 -0.05990689367726349 -0.8977573472988826 -0.4548102628640857 0.44646037688762885 
0.9532609233230287 -0.7533443684601323 -0.4909585190192222 -0.2066392025553404 -0.613762984056472 1.626771877532206 0.8646989093089119 0.1470587873728083 -0.6709553665292104 -0.9650049882854096 
0.7452098589258039 -0.35198566510383594 -0.3685284416294151 -0.5901761841547865 -0.010865276350938011 0.04905262411020392 0.24315205806844808 -0.3699962023597732 0.051303872886859885 -0.1187099454188566 
0.46771792002376794 -0.306907630563053 -1.146395266342527 -0.892967304485221 0.8355890506902593 -0.7071378726269565 -0.27759654581081245 -0.15745078924366696 -0.7746768975745455 -0.515587771079888 
-0.2666710391598684 2.193514780970522 0.3785976104302734 0.12950194562179496 0.05821869214036964 -1.4705750021911668 0.6238790968228204 -0.2769469233321525 -0.6140077328277441 -1.1398548978898466 
0.2208038616028956 -1.135424957474873 -1.458255517159449 -0.9349049994903043 0.4482523179668154 -0.93862234971575 1.4396928281274288 0.44385478958305624 0.0409686148682421 0.6099543346323224 
-1.257579100349257 0.6173542485150849 -0.3998292694666269 -1.0747367858106878 1.0878869822649107 0.18917783210158823 1.2095422138033092 -2.145399715826134 1.5557103200231879 -0.5171002886897297 
-0.3412280925686997 -0.4990976025424477 2.2272456214054506 -0.48727956002707273 -1.2931376627826014 -0.2812250043327977 1.1777144881847348 -0.6188084081901837 -1.2384275225584394 -0.5434747936570345 
-1.6525778574461476 0.5600898493236314 0.4078974862266771 0.2673095973821484 -1.5232947735820221 1.0874382201509094 -1.3842979770525372 0.1351475129503224 -0.44831213527539676 0.15023977674546116 
0.17971554590264582 -0.382003050382762 0.197505982354252 -0.27855017941833904 -0.5657020266944848 0.3478197288628721 -0.5921571841518758 -1.877791081144408 -0.25026930325241914 -0.6444488269927063 
-0.7651510662359859 -0.09572737402758605 -0.7413732086137631 -1.5728922411712623 0.31211033113497905 -0.39937164471037434 -0.5077107437466661 0.14676683112452032 1.0018767084852491 0.2546676544517995 
0.41839651864951327 -0.8449251318265627 0.035642336542719234 0.3181401017619818 -0.6297433757342661 -0.4071609180946639 0.08118840675509134 0.5733891498912972 0.5350335810080461 -0.7774449891444333 
-0.40371245044388687 -0.09603302039976698 -0.014446130611086894 -0.7663602652607582 0.29653181741622275 -0.5109392797787422 0.513029456682933 0.060999467136387084 -0.277693574610107 0.6527337306583417 
-0.20074379453653357 0.24531344017459003 -0.13805489013827058 -0.18300256804485512 0.2098618031721938 -0.6528665612298217 -0.7360053604748026 0.15009604256819492 -1.493811818797426 1.2088791488474737 
